<?xml version="1.0"?>
<opencv_storage>
<cascade>
  <stageType>BOOST</stageType>
  <featureType>HAAR</featureType>
  <height>24</height>
  <width>24</width>
  <stageParams>
    <boostType>GAB</boostType>
    <minHitRate>9.9500000476837158e-01</minHitRate>
    <maxFalseAlarm>5.0000000000000000e-01</maxFalseAlarm>
    <weightTrimRate>9.4999999999999996e-01</weightTrimRate>
    <maxDepth>1</maxDepth>
    <maxWeakCount>100</maxWeakCount></stageParams>
  <featureParams>
    <maxCatCount>0</maxCatCount>
    <featSize>1</featSize>
    <mode>BASIC</mode></featureParams>
  <stageNum>12</stageNum>
  <stages>
    <!-- stage 0 -->
    <_>
      <maxWeakCount>15</maxWeakCount>
      <stageThreshold>-1.5119594335556030e+00</stageThreshold>
      <weakClassifiers>
        <_>
          <internalNodes>
            0 -1 176 -3.8688569329679012e-03</internalNodes>
          <leafValues>
            4.9640288949012756e-01 -4.5421904325485229e-01</leafValues></_>
        <_>
          <internalNodes>
            0 -1 186 -3.0165363103151321e-02</internalNodes>
          <leafValues>
            -8.7771886587142944e-01 1.8715687096118927e-01</leafValues></_>
        <_>
          <internalNodes>
            0 -1 267 -1.1622028425335884e-02</internalNodes>
          <leafValues>
            5.5755335092544556e-01 -2.6109799742698669e-01</leafValues></_>
        <_>
          <internalNodes>
            0 -1 108 -5.0397785380482674e-03</internalNodes>
          <leafValues>
            4.2047175765037537e-01 -3.1212213635444641e-01</leafValues></_>
        <_>
          <internalNodes>
            0 -1 34 1.3377871364355087e-02</internalNodes>
          <leafValues>
            -2.2492142021656036e-01 5.8775901794433594e-01</leafValues></_>
        <_>
          <internalNodes>
            0 -1 3 7.2329133749008179e-02</internalNodes>
          <leafValues>
            -2.0932202041149139e-01 5.6795227527618408e-01</leafValues></_>
        <_>
          <internalNodes>
            0 -1 147 7.7330879867076874e-03</internalNodes>
          <leafValues>
            1.3199226558208466e-01 -9.1180902719497681e-01</leafValues></_>
        <_>
          <internalNodes>
            0 -1 138 1.5266451518982649e-03</internalNodes>
          <leafValues>
            -3.8376176357269287e-01 2.6714965701103210e-01</leafValues></_>
        <_>
          <internalNodes>
            0 -1 205 -6.3129467889666557e-04</internalNodes>
          <leafValues>
            -8.1252449750900269e-01 1.1695385724306107e-01</leafValues></_>
        <_>
          <internalNodes>
            0 -1 72 5.9139919467270374e-03</internalNodes>
          <leafValues>
            8.6891949176788330e-02 -7.8202950954437256e-01</leafValues></_>
        <_>
          <internalNodes>
            0 -1 65 6.2750466167926788e-03</internalNodes>
          <leafValues>
            8.9503228664398193e-02 -8.2397210597991943e-01</leafValues></_>
        <_>
          <internalNodes>
            0 -1 212 -3.2152747735381126e-03</internalNodes>
          <leafValues>
            4.0686699748039246e-01 -2.3352926969528198e-01</leafValues></_>
        <_>
          <internalNodes>
            0 -1 16 -3.3092036843299866e-02</internalNodes>
          <leafValues>
            5.3456616401672363e-01 -2.1349541842937469e-01</leafValues></_>
        <_>
          <internalNodes>
            0 -1 223 2.3420513607561588e-03</internalNodes>
          <leafValues>
            1.3861532509326935e-01 -7.5543993711471558e-01</leafValues></_>
        <_>
          <internalNodes>
            0 -1 40 -1.0972365736961365e-02</internalNodes>
          <leafValues>
            4.9033275246620178e-01 -1.7840646207332611e-01</leafValues></_></weakClassifiers></_>
    <!-- stage 1 -->
    <_>
      <maxWeakCount>15</maxWeakCount>
      <stageThreshold>-1.4902421236038208e+00</stageThreshold>
      <weakClassifiers>
        <_>
          <internalNodes>
            0 -1 201 -3.2120242714881897e-02</internalNodes>
          <leafValues>
            -7.8125000000000000e-01 2.8895547986030579e-01</leafValues></_>
        <_>
          <internalNodes>
            0 -1 120 1.4385974500328302e-03</internalNodes>
          <leafValues>
            -4.7192773222923279e-01 4.5138874650001526e-01</leafValues></_>
        <_>
          <internalNodes>
            0 -1 166 -9.5383860170841217e-03</internalNodes>
          <leafValues>
            5.8004146814346313e-01 -2.6581296324729919e-01</leafValues></_>
        <_>
          <internalNodes>
            0 -1 86 -2.2750375792384148e-03</internalNodes>
          <leafValues>
            4.6514365077018738e-01 -2.9750698804855347e-01</leafValues></_>
        <_>
          <internalNodes>
            0 -1 266 1.0853574611246586e-02</internalNodes>
          <leafValues>
            -2.1427157521247864e-01 5.9227126836776733e-01</leafValues></_>
        <_>
          <internalNodes>
            0 -1 233 1.7295029247179627e-03</internalNodes>
          <leafValues>
            -3.4548234939575195e-01 2.8757908940315247e-01</leafValues></_>
        <_>
          <internalNodes>
            0 -1 272 -6.6692665219306946e-02</internalNodes>
          <leafValues>
            -6.7338818311691284e-01 1.4366240799427032e-01</leafValues></_>
        <_>
          <internalNodes>
            0 -1 53 -7.4980119243264198e-03</internalNodes>
          <leafValues>
            4.6524247527122498e-01 -2.0714174211025238e-01</leafValues></_>
        <_>
          <internalNodes>
            0 -1 61 -1.3492945581674576e-02</internalNodes>
          <leafValues>
            4.4768232107162476e-01 -1.9494506716728210e-01</leafValues></_>
        <_>
          <internalNodes>
            0 -1 58 2.0100925117731094e-02</internalNodes>
          <leafValues>
            1.3609115779399872e-01 -6.9087415933609009e-01</leafValues></_>
        <_>
          <internalNodes>
            0 -1 50 2.9150009155273438e-02</internalNodes>
          <leafValues>
            1.0367067903280258e-01 -6.6846156120300293e-01</leafValues></_>
        <_>
          <internalNodes>
            0 -1 68 6.5076788887381554e-03</internalNodes>
          <leafValues>
            7.2805650532245636e-02 -9.4293326139450073e-01</leafValues></_>
        <_>
          <internalNodes>
            0 -1 194 -6.9825188256800175e-03</internalNodes>
          <leafValues>
            -7.8122115135192871e-01 7.0485167205333710e-02</leafValues></_>
        <_>
          <internalNodes>
            0 -1 264 -9.2644784599542618e-03</internalNodes>
          <leafValues>
            4.5010378956794739e-01 -1.7464992403984070e-01</leafValues></_>
        <_>
          <internalNodes>
            0 -1 263 1.1528985574841499e-02</internalNodes>
          <leafValues>
            -1.3417436182498932e-01 5.5271399021148682e-01</leafValues></_></weakClassifiers></_>
    <!-- stage 2 -->
    <_>
      <maxWeakCount>18</maxWeakCount>
      <stageThreshold>-1.3591198921203613e+00</stageThreshold>
      <weakClassifiers>
        <_>
          <internalNodes>
            0 -1 149 2.0614885725080967e-03</internalNodes>
          <leafValues>
            -4.3639922142028809e-01 5.5295783281326294e-01</leafValues></_>
        <_>
          <internalNodes>
            0 -1 211 6.7652696743607521e-03</internalNodes>
          <leafValues>
            -2.6222500205039978e-01 5.4842847585678101e-01</leafValues></_>
        <_>
          <internalNodes>
            0 -1 32 -1.0543217509984970e-01</internalNodes>
          <leafValues>
            -7.5458419322967529e-01 2.0344765484333038e-01</leafValues></_>
        <_>
          <internalNodes>
            0 -1 247 4.2262542992830276e-03</internalNodes>
          <leafValues>
            -3.1543529033660889e-01 4.5057678222656250e-01</leafValues></_>
        <_>
          <internalNodes>
            0 -1 36 1.0195259936153889e-02</internalNodes>
          <leafValues>
            -2.0795674622058868e-01 5.7029479742050171e-01</leafValues></_>
        <_>
          <internalNodes>
            0 -1 62 -6.0955970548093319e-03</internalNodes>
          <leafValues>
            2.9664075374603271e-01 -3.2109856605529785e-01</leafValues></_>
        <_>
          <internalNodes>
            0 -1 241 -6.4206942915916443e-03</internalNodes>
          <leafValues>
            4.3778192996978760e-01 -2.2263576090335846e-01</leafValues></_>
        <_>
          <internalNodes>
            0 -1 114 4.2973112314939499e-02</internalNodes>
          <leafValues>
            1.3576872646808624e-01 -7.8786498308181763e-01</leafValues></_>
        <_>
          <internalNodes>
            0 -1 227 -6.0759531334042549e-03</internalNodes>
          <leafValues>
            3.1701740622520447e-01 -2.8047138452529907e-01</leafValues></_>
        <_>
          <internalNodes>
            0 -1 20 8.9272055774927139e-03</internalNodes>
          <leafValues>
            -1.6999450325965881e-01 5.9404355287551880e-01</leafValues></_>
        <_>
          <internalNodes>
            0 -1 92 -1.2236806005239487e-01</internalNodes>
          <leafValues>
            -7.7324765920639038e-01 1.3454723358154297e-01</leafValues></_>
        <_>
          <internalNodes>
            0 -1 47 1.2673858553171158e-02</internalNodes>
          <leafValues>
            1.1228865385055542e-01 -5.5734825134277344e-01</leafValues></_>
        <_>
          <internalNodes>
            0 -1 248 -2.6058286894112825e-03</internalNodes>
          <leafValues>
            4.5992746949195862e-01 -1.9222778081893921e-01</leafValues></_>
        <_>
          <internalNodes>
            0 -1 22 7.3417774401605129e-03</internalNodes>
          <leafValues>
            -1.5029552578926086e-01 4.9214488267898560e-01</leafValues></_>
        <_>
          <internalNodes>
            0 -1 116 3.0288111418485641e-02</internalNodes>
          <leafValues>
            9.2308267951011658e-02 -8.3382683992385864e-01</leafValues></_>
        <_>
          <internalNodes>
            0 -1 88 5.5080107413232327e-03</internalNodes>
          <leafValues>
            -1.5005156397819519e-01 4.6645691990852356e-01</leafValues></_>
        <_>
          <internalNodes>
            0 -1 195 5.5699165910482407e-02</internalNodes>
          <leafValues>
            8.6716204881668091e-02 -7.4984604120254517e-01</leafValues></_>
        <_>
          <internalNodes>
            0 -1 146 -1.3617047108709812e-02</internalNodes>
          <leafValues>
            -4.9312359094619751e-01 1.3018321990966797e-01</leafValues></_></weakClassifiers></_>
    <!-- stage 3 -->
    <_>
      <maxWeakCount>18</maxWeakCount>
      <stageThreshold>-1.4359133243560791e+00</stageThreshold>
      <weakClassifiers>
        <_>
          <internalNodes>
            0 -1 179 6.5009240643121302e-05</internalNodes>
          <leafValues>
            -4.9917626380920410e-01 3.0513596534729004e-01</leafValues></_>
        <_>
          <internalNodes>
            0 -1 208 -5.3358654258772731e-04</internalNodes>
          <leafValues>
            -8.3606863021850586e-01 1.3726948201656342e-01</leafValues></_>
        <_>
          <internalNodes>
            0 -1 256 -7.2152771055698395e-02</internalNodes>
          <leafValues>
            6.4177632331848145e-01 -2.0153567194938660e-01</leafValues></_>
        <_>
          <internalNodes>
            0 -1 151 7.9538259888067842e-04</internalNodes>
          <leafValues>
            1.4282892644405365e-01 -8.6173516511917114e-01</leafValues></_>
        <_>
          <internalNodes>
            0 -1 123 1.9595690537244081e-03</internalNodes>
          <leafValues>
            -3.7752327322959900e-01 2.7171280980110168e-01</leafValues></_>
        <_>
          <internalNodes>
            0 -1 246 -2.5916565209627151e-02</internalNodes>
          <leafValues>
            -5.4045498371124268e-01 1.7669056355953217e-01</leafValues></_>
        <_>
          <internalNodes>
            0 -1 76 -4.2170107364654541e-02</internalNodes>
          <leafValues>
            7.3293405771255493e-01 -1.6416041553020477e-01</leafValues></_>
        <_>
          <internalNodes>
            0 -1 151 -8.7816716404631734e-04</internalNodes>
          <leafValues>
            -9.3785005807876587e-01 1.4834719896316528e-01</leafValues></_>
        <_>
          <internalNodes>
            0 -1 140 1.1597463861107826e-02</internalNodes>
          <leafValues>
            -2.8633335232734680e-01 3.7294200062751770e-01</leafValues></_>
        <_>
          <internalNodes>
            0 -1 6 -6.6855244338512421e-02</internalNodes>
          <leafValues>
            6.2972432374954224e-01 -1.1266588419675827e-01</leafValues></_>
        <_>
          <internalNodes>
            0 -1 162 8.7628746405243874e-04</internalNodes>
          <leafValues>
            1.0765483230352402e-01 -8.1502068042755127e-01</leafValues></_>
        <_>
          <internalNodes>
            0 -1 139 -1.1062290519475937e-02</internalNodes>
          <leafValues>
            4.4474309682846069e-01 -1.8663160502910614e-01</leafValues></_>
        <_>
          <internalNodes>
            0 -1 198 2.1254438906908035e-03</internalNodes>
          <leafValues>
            1.4569260179996490e-01 -5.7448363304138184e-01</leafValues></_>
        <_>
          <internalNodes>
            0 -1 235 1.9736061803996563e-03</internalNodes>
          <leafValues>
            9.0700663626194000e-02 -6.8286031484603882e-01</leafValues></_>
        <_>
          <internalNodes>
            0 -1 260 -1.7472928157076240e-03</internalNodes>
          <leafValues>
            -8.2535684108734131e-01 5.6612104177474976e-02</leafValues></_>
        <_>
          <internalNodes>
            0 -1 7 6.4402803778648376e-02</internalNodes>
          <leafValues>
            -1.5306952595710754e-01 4.6384134888648987e-01</leafValues></_>
        <_>
          <internalNodes>
            0 -1 66 -1.0573390172794461e-03</internalNodes>
          <leafValues>
            2.2412201762199402e-01 -2.6259586215019226e-01</leafValues></_>
        <_>
          <internalNodes>
            0 -1 252 -8.5804630070924759e-03</internalNodes>
          <leafValues>
            3.9314931631088257e-01 -1.6684703528881073e-01</leafValues></_></weakClassifiers></_>
    <!-- stage 4 -->
    <_>
      <maxWeakCount>17</maxWeakCount>
      <stageThreshold>-1.5811640024185181e+00</stageThreshold>
      <weakClassifiers>
        <_>
          <internalNodes>
            0 -1 142 1.0469088330864906e-02</internalNodes>
          <leafValues>
            1.8717403709888458e-01 -7.9231399297714233e-01</leafValues></_>
        <_>
          <internalNodes>
            0 -1 112 -2.9372647404670715e-02</internalNodes>
          <leafValues>
            -8.5423928499221802e-01 1.5518346428871155e-01</leafValues></_>
        <_>
          <internalNodes>
            0 -1 183 6.7173712886869907e-03</internalNodes>
          <leafValues>
            1.3113996386528015e-01 -7.2247129678726196e-01</leafValues></_>
        <_>
          <internalNodes>
            0 -1 157 -6.9300113245844841e-03</internalNodes>
          <leafValues>
            -6.8852412700653076e-01 2.3864030838012695e-01</leafValues></_>
        <_>
          <internalNodes>
            0 -1 98 4.2005293071269989e-02</internalNodes>
          <leafValues>
            1.2493864446878433e-01 -7.4210166931152344e-01</leafValues></_>
        <_>
          <internalNodes>
            0 -1 19 -8.4919288754463196e-02</internalNodes>
          <leafValues>
            4.6141618490219116e-01 -2.5759467482566833e-01</leafValues></_>
        <_>
          <internalNodes>
            0 -1 202 -6.2889546155929565e-02</internalNodes>
          <leafValues>
            -6.7008692026138306e-01 2.1326951682567596e-01</leafValues></_>
        <_>
          <internalNodes>
            0 -1 43 -9.4480663537979126e-02</internalNodes>
          <leafValues>
            7.8060454130172729e-01 -1.7095883190631866e-01</leafValues></_>
        <_>
          <internalNodes>
            0 -1 95 2.5684725493192673e-02</internalNodes>
          <leafValues>
            -1.6110007464885712e-01 5.9076082706451416e-01</leafValues></_>
        <_>
          <internalNodes>
            0 -1 122 4.1937958449125290e-03</internalNodes>
          <leafValues>
            1.5445636212825775e-01 -5.9368431568145752e-01</leafValues></_>
        <_>
          <internalNodes>
            0 -1 155 -2.9188592452555895e-03</internalNodes>
          <leafValues>
            -7.0284414291381836e-01 1.2777200341224670e-01</leafValues></_>
        <_>
          <internalNodes>
            0 -1 235 -3.3420727122575045e-03</internalNodes>
          <leafValues>
            -7.0432513952255249e-01 8.8339582085609436e-02</leafValues></_>
        <_>
          <internalNodes>
            0 -1 104 1.4597039669752121e-02</internalNodes>
          <leafValues>
            1.0443944483995438e-01 -6.5752571821212769e-01</leafValues></_>
        <_>
          <internalNodes>
            0 -1 234 6.0789678245782852e-03</internalNodes>
          <leafValues>
            7.6282978057861328e-02 -7.1912854909896851e-01</leafValues></_>
        <_>
          <internalNodes>
            0 -1 249 -3.1841594725847244e-02</internalNodes>
          <leafValues>
            -9.6202856302261353e-01 5.7936966419219971e-02</leafValues></_>
        <_>
          <internalNodes>
            0 -1 185 2.9350982513278723e-03</internalNodes>
          <leafValues>
            -3.1899484992027283e-01 2.0967274904251099e-01</leafValues></_>
        <_>
          <internalNodes>
            0 -1 21 -1.4068195223808289e-01</internalNodes>
          <leafValues>
            -2.0871241390705109e-01 3.8034790754318237e-01</leafValues></_></weakClassifiers></_>
    <!-- stage 5 -->
    <_>
      <maxWeakCount>23</maxWeakCount>
      <stageThreshold>-1.5912221670150757e+00</stageThreshold>
      <weakClassifiers>
        <_>
          <internalNodes>
            0 -1 133 6.5724903834052384e-05</internalNodes>
          <leafValues>
            -5.1629185676574707e-01 2.6652452349662781e-01</leafValues></_>
        <_>
          <internalNodes>
            0 -1 59 3.6368254572153091e-02</internalNodes>
          <leafValues>
            1.4026524126529694e-01 -7.5638943910598755e-01</leafValues></_>
        <_>
          <internalNodes>
            0 -1 113 -3.8446769118309021e-02</internalNodes>
          <leafValues>
            -6.9241189956665039e-01 1.4812043309211731e-01</leafValues></_>
        <_>
          <internalNodes>
            0 -1 107 -5.4220957681536674e-03</internalNodes>
          <leafValues>
            4.8814660310745239e-01 -2.1945634484291077e-01</leafValues></_>
        <_>
          <internalNodes>
            0 -1 101 1.5370896086096764e-02</internalNodes>
          <leafValues>
            1.6188675165176392e-01 -8.3107990026473999e-01</leafValues></_>
        <_>
          <internalNodes>
            0 -1 159 6.5635903738439083e-03</internalNodes>
          <leafValues>
            9.3085236847400665e-02 -7.1868503093719482e-01</leafValues></_>
        <_>
          <internalNodes>
            0 -1 275 7.8742124605923891e-04</internalNodes>
          <leafValues>
            -1.3812372088432312e-01 7.7968400716781616e-01</leafValues></_>
        <_>
          <internalNodes>
            0 -1 209 -5.6468024849891663e-02</internalNodes>
          <leafValues>
            -4.5691111683845520e-01 1.7711643874645233e-01</leafValues></_>
        <_>
          <internalNodes>
            0 -1 242 3.6934702075086534e-04</internalNodes>
          <leafValues>
            -1.7982399463653564e-01 4.4947928190231323e-01</leafValues></_>
        <_>
          <internalNodes>
            0 -1 127 -3.3362444490194321e-02</internalNodes>
          <leafValues>
            -7.2691625356674194e-01 1.1298415064811707e-01</leafValues></_>
        <_>
          <internalNodes>
            0 -1 174 4.1785284876823425e-02</internalNodes>
          <leafValues>
            1.1453412473201752e-01 -7.2441500425338745e-01</leafValues></_>
        <_>
          <internalNodes>
            0 -1 8 -4.6218324452638626e-02</internalNodes>
          <leafValues>
            6.2551271915435791e-01 -1.2574385106563568e-01</leafValues></_>
        <_>
          <internalNodes>
            0 -1 46 8.4496447816491127e-03</internalNodes>
          <leafValues>
            -1.2154477834701538e-01 5.3705763816833496e-01</leafValues></_>
        <_>
          <internalNodes>
            0 -1 182 9.6192620694637299e-03</internalNodes>
          <leafValues>
            9.7731575369834900e-02 -7.0151919126510620e-01</leafValues></_>
        <_>
          <internalNodes>
            0 -1 207 -8.1656360998749733e-04</internalNodes>
          <leafValues>
            -4.1129389405250549e-01 1.7060026526451111e-01</leafValues></_>
        <_>
          <internalNodes>
            0 -1 79 2.0089164376258850e-02</internalNodes>
          <leafValues>
            7.9022496938705444e-02 -6.4548599720001221e-01</leafValues></_>
        <_>
          <internalNodes>
            0 -1 60 -3.7648297846317291e-02</internalNodes>
          <leafValues>
            -7.9564344882965088e-01 7.5830273330211639e-02</leafValues></_>
        <_>
          <internalNodes>
            0 -1 280 -4.5326347462832928e-03</internalNodes>
          <leafValues>
            -2.3996153473854065e-01 2.3817907273769379e-01</leafValues></_>
        <_>
          <internalNodes>
            0 -1 74 -6.7413970828056335e-04</internalNodes>
          <leafValues>
            6.6680812835693359e-01 -7.8137911856174469e-02</leafValues></_>
        <_>
          <internalNodes>
            0 -1 134 -1.6361970454454422e-02</internalNodes>
          <leafValues>
            -4.2604726552963257e-01 1.3672277331352234e-01</leafValues></_>
        <_>
          <internalNodes>
            0 -1 152 1.9521046429872513e-02</internalNodes>
          <leafValues>
            8.7947316467761993e-02 -5.6489729881286621e-01</leafValues></_>
        <_>
          <internalNodes>
            0 -1 23 -1.2387936934828758e-02</internalNodes>
          <leafValues>
            5.1794105768203735e-01 -1.1412458121776581e-01</leafValues></_>
        <_>
          <internalNodes>
            0 -1 24 -4.0066451765596867e-03</internalNodes>
          <leafValues>
            -4.9872288107872009e-01 1.1873155087232590e-01</leafValues></_></weakClassifiers></_>
    <!-- stage 6 -->
    <_>
      <maxWeakCount>21</maxWeakCount>
      <stageThreshold>-1.5502223968505859e+00</stageThreshold>
      <weakClassifiers>
        <_>
          <internalNodes>
            0 -1 206 3.3931154757738113e-03</internalNodes>
          <leafValues>
            -4.3048846721649170e-01 5.9985041618347168e-01</leafValues></_>
        <_>
          <internalNodes>
            0 -1 39 -8.6548998951911926e-03</internalNodes>
          <leafValues>
            5.4724186658859253e-01 -2.7374339103698730e-01</leafValues></_>
        <_>
          <internalNodes>
            0 -1 269 -1.1037744581699371e-02</internalNodes>
          <leafValues>
            5.8413720130920410e-01 -2.0888027548789978e-01</leafValues></_>
        <_>
          <internalNodes>
            0 -1 54 1.1847641319036484e-02</internalNodes>
          <leafValues>
            -1.6264674067497253e-01 5.5306780338287354e-01</leafValues></_>
        <_>
          <internalNodes>
            0 -1 14 3.3835101872682571e-02</internalNodes>
          <leafValues>
            -2.1339049935340881e-01 4.3709740042686462e-01</leafValues></_>
        <_>
          <internalNodes>
            0 -1 254 1.2271076440811157e-02</internalNodes>
          <leafValues>
            -9.3848161399364471e-02 6.4401453733444214e-01</leafValues></_>
        <_>
          <internalNodes>
            0 -1 250 -1.0561111383140087e-02</internalNodes>
          <leafValues>
            5.4736757278442383e-01 -1.4450669288635254e-01</leafValues></_>
        <_>
          <internalNodes>
            0 -1 118 -1.8265496939420700e-02</internalNodes>
          <leafValues>
            -2.8062698245048523e-01 2.7729567885398865e-01</leafValues></_>
        <_>
          <internalNodes>
            0 -1 57 -1.3573361560702324e-02</internalNodes>
          <leafValues>
            6.0546690225601196e-01 -7.0445656776428223e-02</leafValues></_>
        <_>
          <internalNodes>
            0 -1 87 1.4713012613356113e-02</internalNodes>
          <leafValues>
            -2.0478366315364838e-01 3.8799887895584106e-01</leafValues></_>
        <_>
          <internalNodes>
            0 -1 222 -7.8287869691848755e-03</internalNodes>
          <leafValues>
            5.4346060752868652e-01 -8.4936469793319702e-02</leafValues></_>
        <_>
          <internalNodes>
            0 -1 219 6.1761616962030530e-04</internalNodes>
          <leafValues>
            1.3786147534847260e-01 -3.9470994472503662e-01</leafValues></_>
        <_>
          <internalNodes>
            0 -1 276 9.1980025172233582e-03</internalNodes>
          <leafValues>
            -1.2667068839073181e-01 4.3235704302787781e-01</leafValues></_>
        <_>
          <internalNodes>
            0 -1 56 4.8489272594451904e-03</internalNodes>
          <leafValues>
            -1.4264124631881714e-01 3.9121589064598083e-01</leafValues></_>
        <_>
          <internalNodes>
            0 -1 238 2.9857831541448832e-03</internalNodes>
          <leafValues>
            6.6474080085754395e-02 -8.0921214818954468e-01</leafValues></_>
        <_>
          <internalNodes>
            0 -1 48 -1.1770561337471008e-02</internalNodes>
          <leafValues>
            -6.6902714967727661e-01 7.0003263652324677e-02</leafValues></_>
        <_>
          <internalNodes>
            0 -1 204 -3.1721936538815498e-03</internalNodes>
          <leafValues>
            -5.7646250724792480e-01 7.8768469393253326e-02</leafValues></_>
        <_>
          <internalNodes>
            0 -1 45 -1.1243522167205811e-02</internalNodes>
          <leafValues>
            4.9812743067741394e-01 -1.1076163500547409e-01</leafValues></_>
        <_>
          <internalNodes>
            0 -1 69 -8.4173921495676041e-03</internalNodes>
          <leafValues>
            4.4286802411079407e-01 -1.0639566928148270e-01</leafValues></_>
        <_>
          <internalNodes>
            0 -1 85 6.3514672219753265e-03</internalNodes>
          <leafValues>
            -1.1819211393594742e-01 4.2091438174247742e-01</leafValues></_>
        <_>
          <internalNodes>
            0 -1 187 -1.5607131645083427e-03</internalNodes>
          <leafValues>
            -5.2968746423721313e-01 1.0530963540077209e-01</leafValues></_></weakClassifiers></_>
    <!-- stage 7 -->
    <_>
      <maxWeakCount>28</maxWeakCount>
      <stageThreshold>-1.4658981561660767e+00</stageThreshold>
      <weakClassifiers>
        <_>
          <internalNodes>
            0 -1 106 -1.8814238719642162e-03</internalNodes>
          <leafValues>
            4.0941175818443298e-01 -4.6399998664855957e-01</leafValues></_>
        <_>
          <internalNodes>
            0 -1 166 -1.3516027480363846e-02</internalNodes>
          <leafValues>
            5.2351850271224976e-01 -2.3541991412639618e-01</leafValues></_>
        <_>
          <internalNodes>
            0 -1 273 1.4211991801857948e-02</internalNodes>
          <leafValues>
            -1.6813805699348450e-01 5.3697508573532104e-01</leafValues></_>
        <_>
          <internalNodes>
            0 -1 117 8.0282661656383425e-05</internalNodes>
          <leafValues>
            1.7160487174987793e-01 -3.7579727172851563e-01</leafValues></_>
        <_>
          <internalNodes>
            0 -1 144 2.5094819720834494e-03</internalNodes>
          <leafValues>
            8.2097165286540985e-02 -7.5800067186355591e-01</leafValues></_>
        <_>
          <internalNodes>
            0 -1 145 -5.3270459175109863e-03</internalNodes>
          <leafValues>
            -7.6819360256195068e-01 8.5639417171478271e-02</leafValues></_>
        <_>
          <internalNodes>
            0 -1 35 1.2731470167636871e-02</internalNodes>
          <leafValues>
            -1.5491050481796265e-01 4.2381113767623901e-01</leafValues></_>
        <_>
          <internalNodes>
            0 -1 153 -7.4726371094584465e-03</internalNodes>
          <leafValues>
            -4.2283442616462708e-01 1.3666996359825134e-01</leafValues></_>
        <_>
          <internalNodes>
            0 -1 15 -1.1095491796731949e-01</internalNodes>
          <leafValues>
            2.9937285184860229e-01 -2.3130685091018677e-01</leafValues></_>
        <_>
          <internalNodes>
            0 -1 199 4.6349049080163240e-04</internalNodes>
          <leafValues>
            1.6439104080200195e-01 -3.8253286480903625e-01</leafValues></_>
        <_>
          <internalNodes>
            0 -1 196 -7.3060840368270874e-03</internalNodes>
          <leafValues>
            4.1353023052215576e-01 -1.5162181854248047e-01</leafValues></_>
        <_>
          <internalNodes>
            0 -1 192 3.0567212030291557e-02</internalNodes>
          <leafValues>
            -8.5777759552001953e-02 5.6802701950073242e-01</leafValues></_>
        <_>
          <internalNodes>
            0 -1 230 -3.8499482907354832e-03</internalNodes>
          <leafValues>
            -6.2293833494186401e-01 1.0223296284675598e-01</leafValues></_>
        <_>
          <internalNodes>
            0 -1 274 -1.6882842406630516e-02</internalNodes>
          <leafValues>
            4.5096427202224731e-01 -1.3020609319210052e-01</leafValues></_>
        <_>
          <internalNodes>
            0 -1 239 4.6648285351693630e-03</internalNodes>
          <leafValues>
            7.9306922852993011e-02 -7.2044253349304199e-01</leafValues></_>
        <_>
          <internalNodes>
            0 -1 111 8.1860665231943130e-03</internalNodes>
          <leafValues>
            5.9466399252414703e-02 -7.7924066781997681e-01</leafValues></_>
        <_>
          <internalNodes>
            0 -1 5 7.6023265719413757e-02</internalNodes>
          <leafValues>
            -1.3301381468772888e-01 4.5808133482933044e-01</leafValues></_>
        <_>
          <internalNodes>
            0 -1 237 -3.2967962324619293e-03</internalNodes>
          <leafValues>
            -8.0855351686477661e-01 7.6427370309829712e-02</leafValues></_>
        <_>
          <internalNodes>
            0 -1 214 -2.9256439302116632e-03</internalNodes>
          <leafValues>
            -5.8066928386688232e-01 7.0692688226699829e-02</leafValues></_>
        <_>
          <internalNodes>
            0 -1 75 -1.1365325190126896e-02</internalNodes>
          <leafValues>
            3.5792011022567749e-01 -1.4642734825611115e-01</leafValues></_>
        <_>
          <internalNodes>
            0 -1 64 6.9857621565461159e-03</internalNodes>
          <leafValues>
            5.6184884160757065e-02 -8.4629422426223755e-01</leafValues></_>
        <_>
          <internalNodes>
            0 -1 91 5.4781143553555012e-03</internalNodes>
          <leafValues>
            -1.2271148711442947e-01 4.3708419799804688e-01</leafValues></_>
        <_>
          <internalNodes>
            0 -1 96 -2.9621780849993229e-03</internalNodes>
          <leafValues>
            3.3205422759056091e-01 -1.6766266524791718e-01</leafValues></_>
        <_>
          <internalNodes>
            0 -1 12 -4.8660822212696075e-02</internalNodes>
          <leafValues>
            5.1092875003814697e-01 -9.2699930071830750e-02</leafValues></_>
        <_>
          <internalNodes>
            0 -1 168 -3.2383808866143227e-03</internalNodes>
          <leafValues>
            -5.8627164363861084e-01 8.8531792163848877e-02</leafValues></_>
        <_>
          <internalNodes>
            0 -1 232 1.1618077987805009e-03</internalNodes>
          <leafValues>
            -1.7544536292552948e-01 2.6531124114990234e-01</leafValues></_>
        <_>
          <internalNodes>
            0 -1 131 4.8208214342594147e-02</internalNodes>
          <leafValues>
            6.5892785787582397e-02 -7.2672343254089355e-01</leafValues></_>
        <_>
          <internalNodes>
            0 -1 51 1.4642382040619850e-02</internalNodes>
          <leafValues>
            -1.4540520310401917e-01 3.2816934585571289e-01</leafValues></_></weakClassifiers></_>
    <!-- stage 8 -->
    <_>
      <maxWeakCount>17</maxWeakCount>
      <stageThreshold>-1.4250533580780029e+00</stageThreshold>
      <weakClassifiers>
        <_>
          <internalNodes>
            0 -1 119 1.8489696085453033e-03</internalNodes>
          <leafValues>
            -4.9703088402748108e-01 5.5211079120635986e-01</leafValues></_>
        <_>
          <internalNodes>
            0 -1 218 3.2958253286778927e-03</internalNodes>
          <leafValues>
            -4.4736343622207642e-01 3.1123238801956177e-01</leafValues></_>
        <_>
          <internalNodes>
            0 -1 193 -1.1377308517694473e-02</internalNodes>
          <leafValues>
            4.8720872402191162e-01 -2.3855113983154297e-01</leafValues></_>
        <_>
          <internalNodes>
            0 -1 89 -3.8400068879127502e-02</internalNodes>
          <leafValues>
            1.3408936560153961e-01 -8.6520874500274658e-01</leafValues></_>
        <_>
          <internalNodes>
            0 -1 268 4.2279981076717377e-02</internalNodes>
          <leafValues>
            -1.4177209138870239e-01 5.3808003664016724e-01</leafValues></_>
        <_>
          <internalNodes>
            0 -1 213 -3.0354380607604980e-02</internalNodes>
          <leafValues>
            4.4560199975967407e-01 -2.1393097937107086e-01</leafValues></_>
        <_>
          <internalNodes>
            0 -1 135 -1.1418429203331470e-03</internalNodes>
          <leafValues>
            -9.3557178974151611e-01 5.0213210284709930e-02</leafValues></_>
        <_>
          <internalNodes>
            0 -1 190 6.4098765142261982e-04</internalNodes>
          <leafValues>
            -2.7172410488128662e-01 2.5164535641670227e-01</leafValues></_>
        <_>
          <internalNodes>
            0 -1 26 3.3521562814712524e-02</internalNodes>
          <leafValues>
            -1.0779437422752380e-01 5.2745473384857178e-01</leafValues></_>
        <_>
          <internalNodes>
            0 -1 172 -4.7234552912414074e-03</internalNodes>
          <leafValues>
            -8.1272763013839722e-01 7.2019606828689575e-02</leafValues></_>
        <_>
          <internalNodes>
            0 -1 188 1.8429025076329708e-03</internalNodes>
          <leafValues>
            7.3080956935882568e-02 -6.7146825790405273e-01</leafValues></_>
        <_>
          <internalNodes>
            0 -1 197 -7.4501380324363708e-02</internalNodes>
          <leafValues>
            6.0748320072889328e-02 -8.6830711364746094e-01</leafValues></_>
        <_>
          <internalNodes>
            0 -1 44 -1.8893869593739510e-02</internalNodes>
          <leafValues>
            4.5445704460144043e-01 -1.2975321710109711e-01</leafValues></_>
        <_>
          <internalNodes>
            0 -1 42 -8.7122574448585510e-02</internalNodes>
          <leafValues>
            5.7809615135192871e-01 -1.0542885214090347e-01</leafValues></_>
        <_>
          <internalNodes>
            0 -1 18 -1.0292300581932068e-01</internalNodes>
          <leafValues>
            4.6796637773513794e-01 -1.2805123627185822e-01</leafValues></_>
        <_>
          <internalNodes>
            0 -1 2 -8.4825947880744934e-02</internalNodes>
          <leafValues>
            3.9189136028289795e-01 -1.6848023235797882e-01</leafValues></_>
        <_>
          <internalNodes>
            0 -1 13 3.4015569835901260e-02</internalNodes>
          <leafValues>
            -1.2392009794712067e-01 4.3086719512939453e-01</leafValues></_></weakClassifiers></_>
    <!-- stage 9 -->
    <_>
      <maxWeakCount>33</maxWeakCount>
      <stageThreshold>-1.5017392635345459e+00</stageThreshold>
      <weakClassifiers>
        <_>
          <internalNodes>
            0 -1 129 6.1533058760687709e-04</internalNodes>
          <leafValues>
            -4.2711997032165527e-01 2.8456130623817444e-01</leafValues></_>
        <_>
          <internalNodes>
            0 -1 271 -2.1770864725112915e-02</internalNodes>
          <leafValues>
            4.9877884984016418e-01 -1.9231586158275604e-01</leafValues></_>
        <_>
          <internalNodes>
            0 -1 102 -4.1357666254043579e-02</internalNodes>
          <leafValues>
            -3.6092925071716309e-01 2.7578940987586975e-01</leafValues></_>
        <_>
          <internalNodes>
            0 -1 270 7.5833559036254883e-02</internalNodes>
          <leafValues>
            -1.6909170150756836e-01 6.4958584308624268e-01</leafValues></_>
        <_>
          <internalNodes>
            0 -1 70 2.3509932216256857e-03</internalNodes>
          <leafValues>
            2.1153001487255096e-01 -6.5807962417602539e-01</leafValues></_>
        <_>
          <internalNodes>
            0 -1 0 9.0752050280570984e-02</internalNodes>
          <leafValues>
            -2.3453401029109955e-01 4.6524146199226379e-01</leafValues></_>
        <_>
          <internalNodes>
            0 -1 71 1.6780819278210402e-03</internalNodes>
          <leafValues>
            2.0183385908603668e-01 -4.3140056729316711e-01</leafValues></_>
        <_>
          <internalNodes>
            0 -1 10 -3.1166132539510727e-02</internalNodes>
          <leafValues>
            6.6106826066970825e-01 -1.0771092772483826e-01</leafValues></_>
        <_>
          <internalNodes>
            0 -1 217 -1.7963112331926823e-03</internalNodes>
          <leafValues>
            1.6521291434764862e-01 -4.2391380667686462e-01</leafValues></_>
        <_>
          <internalNodes>
            0 -1 167 3.4823394380509853e-03</internalNodes>
          <leafValues>
            1.0238681733608246e-01 -7.6626324653625488e-01</leafValues></_>
        <_>
          <internalNodes>
            0 -1 124 -4.6549677848815918e-02</internalNodes>
          <leafValues>
            4.3173432350158691e-01 -1.7037877440452576e-01</leafValues></_>
        <_>
          <internalNodes>
            0 -1 125 1.5703476965427399e-02</internalNodes>
          <leafValues>
            -1.2316296994686127e-01 4.6852520108222961e-01</leafValues></_>
        <_>
          <internalNodes>
            0 -1 265 -7.9254049342125654e-04</internalNodes>
          <leafValues>
            -6.6736441850662231e-01 9.5894090831279755e-02</leafValues></_>
        <_>
          <internalNodes>
            0 -1 244 1.8839461263269186e-03</internalNodes>
          <leafValues>
            -1.8396830558776855e-01 2.9160341620445251e-01</leafValues></_>
        <_>
          <internalNodes>
            0 -1 245 -9.1588741634041071e-04</internalNodes>
          <leafValues>
            -8.2953578233718872e-01 6.6116757690906525e-02</leafValues></_>
        <_>
          <internalNodes>
            0 -1 169 -2.5823749601840973e-03</internalNodes>
          <leafValues>
            -6.3204210996627808e-01 5.3822211921215057e-02</leafValues></_>
        <_>
          <internalNodes>
            0 -1 25 1.1118654906749725e-01</internalNodes>
          <leafValues>
            -1.1849065870046616e-01 3.9873540401458740e-01</leafValues></_>
        <_>
          <internalNodes>
            0 -1 80 -6.0284333303570747e-03</internalNodes>
          <leafValues>
            -6.1535340547561646e-01 7.8221425414085388e-02</leafValues></_>
        <_>
          <internalNodes>
            0 -1 83 -4.3540825136005878e-03</internalNodes>
          <leafValues>
            -6.9021624326705933e-01 5.4443486034870148e-02</leafValues></_>
        <_>
          <internalNodes>
            0 -1 258 5.5859284475445747e-04</internalNodes>
          <leafValues>
            5.7161759585142136e-02 -6.2600123882293701e-01</leafValues></_>
        <_>
          <internalNodes>
            0 -1 136 -1.7224689945578575e-03</internalNodes>
          <leafValues>
            5.0819285213947296e-02 -6.1201989650726318e-01</leafValues></_>
        <_>
          <internalNodes>
            0 -1 165 -3.6089111119508743e-02</internalNodes>
          <leafValues>
            4.0249037742614746e-01 -1.1091143637895584e-01</leafValues></_>
        <_>
          <internalNodes>
            0 -1 279 -1.4648104086518288e-02</internalNodes>
          <leafValues>
            4.4251921772956848e-01 -8.8718697428703308e-02</leafValues></_>
        <_>
          <internalNodes>
            0 -1 277 -3.7133708596229553e-02</internalNodes>
          <leafValues>
            -2.8622925281524658e-01 1.5504784882068634e-01</leafValues></_>
        <_>
          <internalNodes>
            0 -1 81 -8.4579642862081528e-04</internalNodes>
          <leafValues>
            -5.3739565610885620e-01 7.5760677456855774e-02</leafValues></_>
        <_>
          <internalNodes>
            0 -1 137 1.7021729145199060e-03</internalNodes>
          <leafValues>
            -2.2173528373241425e-01 1.8183259665966034e-01</leafValues></_>
        <_>
          <internalNodes>
            0 -1 150 1.8954904749989510e-02</internalNodes>
          <leafValues>
            7.7866710722446442e-02 -5.5395662784576416e-01</leafValues></_>
        <_>
          <internalNodes>
            0 -1 160 1.4069231692701578e-03</internalNodes>
          <leafValues>
            -1.5310980379581451e-01 3.0140069127082825e-01</leafValues></_>
        <_>
          <internalNodes>
            0 -1 163 -5.7289545657113194e-04</internalNodes>
          <leafValues>
            -5.8790755271911621e-01 6.3882663846015930e-02</leafValues></_>
        <_>
          <internalNodes>
            0 -1 126 9.2471996322274208e-04</internalNodes>
          <leafValues>
            -1.9747009873390198e-01 1.8428741395473480e-01</leafValues></_>
        <_>
          <internalNodes>
            0 -1 154 -7.7090732520446181e-04</internalNodes>
          <leafValues>
            -6.8266427516937256e-01 5.2705809473991394e-02</leafValues></_>
        <_>
          <internalNodes>
            0 -1 257 1.8290444277226925e-03</internalNodes>
          <leafValues>
            -1.9734588265419006e-01 1.7997007071971893e-01</leafValues></_>
        <_>
          <internalNodes>
            0 -1 11 -7.5718894600868225e-02</internalNodes>
          <leafValues>
            7.3625850677490234e-01 -5.5946677923202515e-02</leafValues></_></weakClassifiers></_>
    <!-- stage 10 -->
    <_>
      <maxWeakCount>41</maxWeakCount>
      <stageThreshold>-1.3872922658920288e+00</stageThreshold>
      <weakClassifiers>
        <_>
          <internalNodes>
            0 -1 177 4.8587558558210731e-04</internalNodes>
          <leafValues>
            -4.5460727810859680e-01 3.8652789592742920e-01</leafValues></_>
        <_>
          <internalNodes>
            0 -1 259 -1.4829060528427362e-03</internalNodes>
          <leafValues>
            3.4789875149726868e-01 -2.8786912560462952e-01</leafValues></_>
        <_>
          <internalNodes>
            0 -1 164 4.0083900094032288e-03</internalNodes>
          <leafValues>
            -1.8137368559837341e-01 4.0395405888557434e-01</leafValues></_>
        <_>
          <internalNodes>
            0 -1 278 2.9711412265896797e-02</internalNodes>
          <leafValues>
            -9.2117883265018463e-02 5.9596198797225952e-01</leafValues></_>
        <_>
          <internalNodes>
            0 -1 253 -7.1727842092514038e-02</internalNodes>
          <leafValues>
            4.3509986996650696e-01 -1.8057695031166077e-01</leafValues></_>
        <_>
          <internalNodes>
            0 -1 156 -1.1959149502217770e-02</internalNodes>
          <leafValues>
            -4.3161660432815552e-01 1.4957912266254425e-01</leafValues></_>
        <_>
          <internalNodes>
            0 -1 37 2.4443730711936951e-02</internalNodes>
          <leafValues>
            -1.3318711519241333e-01 4.3889769911766052e-01</leafValues></_>
        <_>
          <internalNodes>
            0 -1 9 -3.9740070700645447e-02</internalNodes>
          <leafValues>
            4.1254577040672302e-01 -1.6829827427864075e-01</leafValues></_>
        <_>
          <internalNodes>
            0 -1 215 8.0642662942409515e-03</internalNodes>
          <leafValues>
            9.8663270473480225e-02 -6.7461162805557251e-01</leafValues></_>
        <_>
          <internalNodes>
            0 -1 226 2.3565015289932489e-03</internalNodes>
          <leafValues>
            4.9986857920885086e-02 -5.5398917198181152e-01</leafValues></_>
        <_>
          <internalNodes>
            0 -1 240 -3.6632768809795380e-02</internalNodes>
          <leafValues>
            3.4680944681167603e-01 -1.3212867081165314e-01</leafValues></_>
        <_>
          <internalNodes>
            0 -1 158 3.8676080293953419e-04</internalNodes>
          <leafValues>
            -2.5449615716934204e-01 1.9709010422229767e-01</leafValues></_>
        <_>
          <internalNodes>
            0 -1 93 -2.3765135556459427e-02</internalNodes>
          <leafValues>
            -5.3883093595504761e-01 1.0508292913436890e-01</leafValues></_>
        <_>
          <internalNodes>
            0 -1 130 8.2648062380030751e-04</internalNodes>
          <leafValues>
            3.3663444221019745e-02 -6.8648594617843628e-01</leafValues></_>
        <_>
          <internalNodes>
            0 -1 251 1.4296551235020161e-03</internalNodes>
          <leafValues>
            -1.7416422069072723e-01 2.3924644291400909e-01</leafValues></_>
        <_>
          <internalNodes>
            0 -1 67 -1.5844032168388367e-04</internalNodes>
          <leafValues>
            1.5069137513637543e-01 -3.1711050868034363e-01</leafValues></_>
        <_>
          <internalNodes>
            0 -1 161 1.5652656555175781e-02</internalNodes>
          <leafValues>
            -1.1260654777288437e-01 3.7183162569999695e-01</leafValues></_>
        <_>
          <internalNodes>
            0 -1 105 2.3321421816945076e-02</internalNodes>
          <leafValues>
            6.2844149768352509e-02 -6.2021332979202271e-01</leafValues></_>
        <_>
          <internalNodes>
            0 -1 243 5.8775336947292089e-04</internalNodes>
          <leafValues>
            -1.8762835860252380e-01 1.9730606675148010e-01</leafValues></_>
        <_>
          <internalNodes>
            0 -1 141 -2.1824738942086697e-03</internalNodes>
          <leafValues>
            -4.5956683158874512e-01 7.5059473514556885e-02</leafValues></_>
        <_>
          <internalNodes>
            0 -1 128 1.7767800018191338e-03</internalNodes>
          <leafValues>
            -1.1900548636913300e-01 2.9464039206504822e-01</leafValues></_>
        <_>
          <internalNodes>
            0 -1 78 -7.8302389010787010e-03</internalNodes>
          <leafValues>
            2.1604204177856445e-01 -2.0767962932586670e-01</leafValues></_>
        <_>
          <internalNodes>
            0 -1 38 -2.2894453257322311e-02</internalNodes>
          <leafValues>
            -8.1560647487640381e-01 3.8949780166149139e-02</leafValues></_>
        <_>
          <internalNodes>
            0 -1 109 2.5075229350477457e-03</internalNodes>
          <leafValues>
            -1.5210261940956116e-01 2.2107249498367310e-01</leafValues></_>
        <_>
          <internalNodes>
            0 -1 110 -2.1874565631151199e-02</internalNodes>
          <leafValues>
            5.0043165683746338e-01 -8.9410081505775452e-02</leafValues></_>
        <_>
          <internalNodes>
            0 -1 49 -9.6531733870506287e-03</internalNodes>
          <leafValues>
            3.0021733045578003e-01 -1.0462891310453415e-01</leafValues></_>
        <_>
          <internalNodes>
            0 -1 30 9.6192639321088791e-03</internalNodes>
          <leafValues>
            -6.6105775535106659e-02 6.0244572162628174e-01</leafValues></_>
        <_>
          <internalNodes>
            0 -1 225 4.0023513138294220e-03</internalNodes>
          <leafValues>
            6.2471669167280197e-02 -6.1698806285858154e-01</leafValues></_>
        <_>
          <internalNodes>
            0 -1 261 -1.3690136838704348e-03</internalNodes>
          <leafValues>
            -4.3334770202636719e-01 7.0332683622837067e-02</leafValues></_>
        <_>
          <internalNodes>
            0 -1 221 2.7242889627814293e-03</internalNodes>
          <leafValues>
            -1.0873233526945114e-01 3.6305105686187744e-01</leafValues></_>
        <_>
          <internalNodes>
            0 -1 231 -9.3566591385751963e-04</internalNodes>
          <leafValues>
            3.2473498582839966e-01 -1.2762264907360077e-01</leafValues></_>
        <_>
          <internalNodes>
            0 -1 132 -1.2044228613376617e-02</internalNodes>
          <leafValues>
            -3.9010003209114075e-01 1.0407375544309616e-01</leafValues></_>
        <_>
          <internalNodes>
            0 -1 203 1.7986021935939789e-02</internalNodes>
          <leafValues>
            4.9404188990592957e-02 -5.9562468528747559e-01</leafValues></_>
        <_>
          <internalNodes>
            0 -1 84 2.7177711017429829e-03</internalNodes>
          <leafValues>
            3.5133436322212219e-02 -7.6668441295623779e-01</leafValues></_>
        <_>
          <internalNodes>
            0 -1 151 1.0564542608335614e-03</internalNodes>
          <leafValues>
            2.6557894423604012e-02 -8.7737667560577393e-01</leafValues></_>
        <_>
          <internalNodes>
            0 -1 173 -3.8263671100139618e-02</internalNodes>
          <leafValues>
            -7.5091779232025146e-01 3.2952036708593369e-02</leafValues></_>
        <_>
          <internalNodes>
            0 -1 148 -6.8578182253986597e-04</internalNodes>
          <leafValues>
            2.9496094584465027e-01 -1.2718966603279114e-01</leafValues></_>
        <_>
          <internalNodes>
            0 -1 97 2.8420032467693090e-03</internalNodes>
          <leafValues>
            -1.0529820621013641e-01 3.2990458607673645e-01</leafValues></_>
        <_>
          <internalNodes>
            0 -1 28 1.6916699707508087e-02</internalNodes>
          <leafValues>
            -1.1111553013324738e-01 2.9427140951156616e-01</leafValues></_>
        <_>
          <internalNodes>
            0 -1 100 3.9597801864147186e-02</internalNodes>
          <leafValues>
            4.7072403132915497e-02 -6.9077283143997192e-01</leafValues></_>
        <_>
          <internalNodes>
            0 -1 41 -8.3591917064040899e-04</internalNodes>
          <leafValues>
            -2.9705029726028442e-01 9.2029787600040436e-02</leafValues></_></weakClassifiers></_>
    <!-- stage 11 -->
    <_>
      <maxWeakCount>39</maxWeakCount>
      <stageThreshold>-1.4693225622177124e+00</stageThreshold>
      <weakClassifiers>
        <_>
          <internalNodes>
            0 -1 220 -6.3806434627622366e-04</internalNodes>
          <leafValues>
            4.3399694561958313e-01 -4.5199361443519592e-01</leafValues></_>
        <_>
          <internalNodes>
            0 -1 63 6.3684092310722917e-05</internalNodes>
          <leafValues>
            -4.5365300774574280e-01 2.1160066127777100e-01</leafValues></_>
        <_>
          <internalNodes>
            0 -1 52 -6.2860548496246338e-03</internalNodes>
          <leafValues>
            3.6204364895820618e-01 -2.2420513629913330e-01</leafValues></_>
        <_>
          <internalNodes>
            0 -1 115 -3.4451909596100450e-04</internalNodes>
          <leafValues>
            -3.7231686711311340e-01 1.8834306299686432e-01</leafValues></_>
        <_>
          <internalNodes>
            0 -1 262 -1.6672099009156227e-03</internalNodes>
          <leafValues>
            3.3127778768539429e-01 -1.9429454207420349e-01</leafValues></_>
        <_>
          <internalNodes>
            0 -1 180 2.0767197012901306e-02</internalNodes>
          <leafValues>
            6.9791674613952637e-02 -5.8469432592391968e-01</leafValues></_>
        <_>
          <internalNodes>
            0 -1 4 -2.1289089322090149e-01</internalNodes>
          <leafValues>
            2.7495324611663818e-01 -1.8288595974445343e-01</leafValues></_>
        <_>
          <internalNodes>
            0 -1 27 5.4636992514133453e-02</internalNodes>
          <leafValues>
            -1.3002574443817139e-01 4.2285406589508057e-01</leafValues></_>
        <_>
          <internalNodes>
            0 -1 229 4.1303533362224698e-04</internalNodes>
          <leafValues>
            1.3549812138080597e-01 -3.6405327916145325e-01</leafValues></_>
        <_>
          <internalNodes>
            0 -1 17 -4.0121451020240784e-02</internalNodes>
          <leafValues>
            3.1779563426971436e-01 -1.6990613937377930e-01</leafValues></_>
        <_>
          <internalNodes>
            0 -1 255 3.3548615872859955e-02</internalNodes>
          <leafValues>
            -1.2425231188535690e-01 4.2131459712982178e-01</leafValues></_>
        <_>
          <internalNodes>
            0 -1 189 5.4814195027574897e-04</internalNodes>
          <leafValues>
            -1.7383769154548645e-01 2.8763329982757568e-01</leafValues></_>
        <_>
          <internalNodes>
            0 -1 216 -7.2641838341951370e-03</internalNodes>
          <leafValues>
            -6.8226933479309082e-01 7.9239398241043091e-02</leafValues></_>
        <_>
          <internalNodes>
            0 -1 170 8.8131043594330549e-04</internalNodes>
          <leafValues>
            4.6550519764423370e-02 -7.1803998947143555e-01</leafValues></_>
        <_>
          <internalNodes>
            0 -1 224 1.0916891042143106e-03</internalNodes>
          <leafValues>
            3.1994391232728958e-02 -8.1857389211654663e-01</leafValues></_>
        <_>
          <internalNodes>
            0 -1 228 7.3004928417503834e-03</internalNodes>
          <leafValues>
            -1.1729136109352112e-01 3.3299112319946289e-01</leafValues></_>
        <_>
          <internalNodes>
            0 -1 33 -2.2440099716186523e-01</internalNodes>
          <leafValues>
            4.9069154262542725e-01 -9.8248280584812164e-02</leafValues></_>
        <_>
          <internalNodes>
            0 -1 200 -2.3491908796131611e-03</internalNodes>
          <leafValues>
            2.6788082718849182e-01 -1.7064775526523590e-01</leafValues></_>
        <_>
          <internalNodes>
            0 -1 178 5.5240315850824118e-04</internalNodes>
          <leafValues>
            -1.4812210202217102e-01 3.5354772210121155e-01</leafValues></_>
        <_>
          <internalNodes>
            0 -1 236 1.8250838620588183e-03</internalNodes>
          <leafValues>
            6.0898877680301666e-02 -6.1064958572387695e-01</leafValues></_>
        <_>
          <internalNodes>
            0 -1 171 9.4964873278513551e-04</internalNodes>
          <leafValues>
            4.9123272299766541e-02 -6.5166121721267700e-01</leafValues></_>
        <_>
          <internalNodes>
            0 -1 181 1.6117591876536608e-03</internalNodes>
          <leafValues>
            -1.0147763043642044e-01 3.9234095811843872e-01</leafValues></_>
        <_>
          <internalNodes>
            0 -1 175 3.4523140639066696e-03</internalNodes>
          <leafValues>
            7.3628328740596771e-02 -5.2838587760925293e-01</leafValues></_>
        <_>
          <internalNodes>
            0 -1 184 2.4657286703586578e-03</internalNodes>
          <leafValues>
            -1.0616786777973175e-01 3.5886722803115845e-01</leafValues></_>
        <_>
          <internalNodes>
            0 -1 1 -7.9453065991401672e-02</internalNodes>
          <leafValues>
            3.1105363368988037e-01 -1.2094198912382126e-01</leafValues></_>
        <_>
          <internalNodes>
            0 -1 31 5.6695425882935524e-03</internalNodes>
          <leafValues>
            -1.4665094017982483e-01 2.7634549140930176e-01</leafValues></_>
        <_>
          <internalNodes>
            0 -1 210 6.2749657081440091e-04</internalNodes>
          <leafValues>
            5.7769816368818283e-02 -6.1706906557083130e-01</leafValues></_>
        <_>
          <internalNodes>
            0 -1 29 1.8986222147941589e-01</internalNodes>
          <leafValues>
            -8.5259139537811279e-02 4.7016653418540955e-01</leafValues></_>
        <_>
          <internalNodes>
            0 -1 191 -1.3141643721610308e-03</internalNodes>
          <leafValues>
            3.0587264895439148e-01 -1.3598036766052246e-01</leafValues></_>
        <_>
          <internalNodes>
            0 -1 82 1.6385935014113784e-03</internalNodes>
          <leafValues>
            7.0524759590625763e-02 -5.9100508689880371e-01</leafValues></_>
        <_>
          <internalNodes>
            0 -1 73 -8.9144997298717499e-02</internalNodes>
          <leafValues>
            4.6249933540821075e-02 -6.4037191867828369e-01</leafValues></_>
        <_>
          <internalNodes>
            0 -1 121 -1.1663956101983786e-03</internalNodes>
          <leafValues>
            -8.4097182750701904e-01 3.3915463835000992e-02</leafValues></_>
        <_>
          <internalNodes>
            0 -1 103 -7.4996700277552009e-04</internalNodes>
          <leafValues>
            2.4872405827045441e-01 -1.3375638425350189e-01</leafValues></_>
        <_>
          <internalNodes>
            0 -1 94 -1.6100727953016758e-03</internalNodes>
          <leafValues>
            1.7352797091007233e-01 -2.0276060700416565e-01</leafValues></_>
        <_>
          <internalNodes>
            0 -1 77 5.3844102658331394e-03</internalNodes>
          <leafValues>
            -8.7733045220375061e-02 3.8710328936576843e-01</leafValues></_>
        <_>
          <internalNodes>
            0 -1 55 -2.2938305512070656e-02</internalNodes>
          <leafValues>
            4.0051370859146118e-01 -8.6053110659122467e-02</leafValues></_>
        <_>
          <internalNodes>
            0 -1 143 -5.1155209541320801e-02</internalNodes>
          <leafValues>
            -5.1548004150390625e-01 7.0763275027275085e-02</leafValues></_>
        <_>
          <internalNodes>
            0 -1 90 -5.9681627899408340e-03</internalNodes>
          <leafValues>
            -5.0600677728652954e-01 6.8683184683322906e-02</leafValues></_>
        <_>
          <internalNodes>
            0 -1 99 -3.6977813579142094e-03</internalNodes>
          <leafValues>
            3.7766292691230774e-01 -1.0288187861442566e-01</leafValues></_></weakClassifiers></_></stages>
  <features>
    <_>
      <rects>
        <_>
          0 0 8 22 -1.</_>
        <_>
          4 0 4 22 2.</_></rects>
      <tilted>0</tilted></_>
    <_>
      <rects>
        <_>
          0 0 10 12 -1.</_>
        <_>
          5 0 5 12 2.</_></rects>
      <tilted>0</tilted></_>
    <_>
      <rects>
        <_>
          0 0 10 17 -1.</_>
        <_>
          5 0 5 17 2.</_></rects>
      <tilted>0</tilted></_>
    <_>
      <rects>
        <_>
          0 0 16 10 -1.</_>
        <_>
          0 5 16 5 2.</_></rects>
      <tilted>0</tilted></_>
    <_>
      <rects>
        <_>
          0 1 24 4 -1.</_>
        <_>
          8 1 8 4 2.</_></rects>
      <tilted>0</tilted></_>
    <_>
      <rects>
        <_>
          0 2 12 9 -1.</_>
        <_>
          6 2 6 9 2.</_></rects>
      <tilted>0</tilted></_>
    <_>
      <rects>
        <_>
          0 3 6 16 -1.</_>
        <_>
          3 3 3 16 2.</_></rects>
      <tilted>0</tilted></_>
    <_>
      <rects>
        <_>
          0 3 10 9 -1.</_>
        <_>
          5 3 5 9 2.</_></rects>
      <tilted>0</tilted></_>
    <_>
      <rects>
        <_>
          0 4 4 16 -1.</_>
        <_>
          2 4 2 16 2.</_></rects>
      <tilted>0</tilted></_>
    <_>
      <rects>
        <_>
          0 4 6 13 -1.</_>
        <_>
          3 4 3 13 2.</_></rects>
      <tilted>0</tilted></_>
    <_>
      <rects>
        <_>
          0 6 4 9 -1.</_>
        <_>
          2 6 2 9 2.</_></rects>
      <tilted>0</tilted></_>
    <_>
      <rects>
        <_>
          0 6 2 18 -1.</_>
        <_>
          0 15 2 9 2.</_></rects>
      <tilted>0</tilted></_>
    <_>
      <rects>
        <_>
          0 6 6 9 -1.</_>
        <_>
          3 6 3 9 2.</_></rects>
      <tilted>0</tilted></_>
    <_>
      <rects>
        <_>
          0 7 6 12 -1.</_>
        <_>
          3 7 3 12 2.</_></rects>
      <tilted>0</tilted></_>
    <_>
      <rects>
        <_>
          0 8 10 16 -1.</_>
        <_>
          0 8 5 8 2.</_>
        <_>
          5 16 5 8 2.</_></rects>
      <tilted>0</tilted></_>
    <_>
      <rects>
        <_>
          0 8 23 16 -1.</_>
        <_>
          0 16 23 8 2.</_></rects>
      <tilted>0</tilted></_>
    <_>
      <rects>
        <_>
          0 13 10 5 -1.</_>
        <_>
          5 13 5 5 2.</_></rects>
      <tilted>0</tilted></_>
    <_>
      <rects>
        <_>
          0 14 9 10 -1.</_>
        <_>
          0 19 9 5 2.</_></rects>
      <tilted>0</tilted></_>
    <_>
      <rects>
        <_>
          0 14 20 10 -1.</_>
        <_>
          0 19 20 5 2.</_></rects>
      <tilted>0</tilted></_>
    <_>
      <rects>
        <_>
          0 16 22 8 -1.</_>
        <_>
          0 20 22 4 2.</_></rects>
      <tilted>0</tilted></_>
    <_>
      <rects>
        <_>
          0 18 14 1 -1.</_>
        <_>
          7 18 7 1 2.</_></rects>
      <tilted>0</tilted></_>
    <_>
      <rects>
        <_>
          0 19 24 5 -1.</_>
        <_>
          8 19 8 5 2.</_></rects>
      <tilted>0</tilted></_>
    <_>
      <rects>
        <_>
          0 20 10 4 -1.</_>
        <_>
          0 20 5 2 2.</_>
        <_>
          5 22 5 2 2.</_></rects>
      <tilted>0</tilted></_>
    <_>
      <rects>
        <_>
          0 20 22 2 -1.</_>
        <_>
          0 21 22 1 2.</_></rects>
      <tilted>0</tilted></_>
    <_>
      <rects>
        <_>
          0 21 4 2 -1.</_>
        <_>
          2 21 2 2 2.</_></rects>
      <tilted>0</tilted></_>
    <_>
      <rects>
        <_>
          1 0 21 10 -1.</_>
        <_>
          1 5 21 5 2.</_></rects>
      <tilted>0</tilted></_>
    <_>
      <rects>
        <_>
          1 2 8 10 -1.</_>
        <_>
          1 2 4 5 2.</_>
        <_>
          5 7 4 5 2.</_></rects>
      <tilted>0</tilted></_>
    <_>
      <rects>
        <_>
          1 2 12 7 -1.</_>
        <_>
          7 2 6 7 2.</_></rects>
      <tilted>0</tilted></_>
    <_>
      <rects>
        <_>
          1 2 14 4 -1.</_>
        <_>
          1 2 7 2 2.</_>
        <_>
          8 4 7 2 2.</_></rects>
      <tilted>0</tilted></_>
    <_>
      <rects>
        <_>
          1 4 22 20 -1.</_>
        <_>
          1 14 22 10 2.</_></rects>
      <tilted>0</tilted></_>
    <_>
      <rects>
        <_>
          1 8 2 8 -1.</_>
        <_>
          2 8 1 8 2.</_></rects>
      <tilted>0</tilted></_>
    <_>
      <rects>
        <_>
          1 10 4 6 -1.</_>
        <_>
          3 10 2 6 2.</_></rects>
      <tilted>0</tilted></_>
    <_>
      <rects>
        <_>
          1 11 9 4 -1.</_>
        <_>
          4 11 3 4 2.</_></rects>
      <tilted>0</tilted></_>
    <_>
      <rects>
        <_>
          2 0 20 10 -1.</_>
        <_>
          2 5 20 5 2.</_></rects>
      <tilted>0</tilted></_>
    <_>
      <rects>
        <_>
          2 1 4 14 -1.</_>
        <_>
          2 1 2 7 2.</_>
        <_>
          4 8 2 7 2.</_></rects>
      <tilted>0</tilted></_>
    <_>
      <rects>
        <_>
          2 2 4 12 -1.</_>
        <_>
          2 2 2 6 2.</_>
        <_>
          4 8 2 6 2.</_></rects>
      <tilted>0</tilted></_>
    <_>
      <rects>
        <_>
          2 2 10 4 -1.</_>
        <_>
          2 2 5 2 2.</_>
        <_>
          7 4 5 2 2.</_></rects>
      <tilted>0</tilted></_>
    <_>
      <rects>
        <_>
          2 5 4 13 -1.</_>
        <_>
          4 5 2 13 2.</_></rects>
      <tilted>0</tilted></_>
    <_>
      <rects>
        <_>
          2 9 3 2 -1.</_>
        <_>
          3 9 1 2 2.</_></rects>
      <tilted>0</tilted></_>
    <_>
      <rects>
        <_>
          2 11 4 12 -1.</_>
        <_>
          2 11 2 6 2.</_>
        <_>
          4 17 2 6 2.</_></rects>
      <tilted>0</tilted></_>
    <_>
      <rects>
        <_>
          2 17 8 6 -1.</_>
        <_>
          2 17 4 3 2.</_>
        <_>
          6 20 4 3 2.</_></rects>
      <tilted>0</tilted></_>
    <_>
      <rects>
        <_>
          2 23 4 1 -1.</_>
        <_>
          4 23 2 1 2.</_></rects>
      <tilted>0</tilted></_>
    <_>
      <rects>
        <_>
          3 0 12 8 -1.</_>
        <_>
          3 4 12 4 2.</_></rects>
      <tilted>0</tilted></_>
    <_>
      <rects>
        <_>
          3 0 18 6 -1.</_>
        <_>
          3 3 18 3 2.</_></rects>
      <tilted>0</tilted></_>
    <_>
      <rects>
        <_>
          3 3 8 6 -1.</_>
        <_>
          3 3 4 3 2.</_>
        <_>
          7 6 4 3 2.</_></rects>
      <tilted>0</tilted></_>
    <_>
      <rects>
        <_>
          3 4 4 8 -1.</_>
        <_>
          3 4 2 4 2.</_>
        <_>
          5 8 2 4 2.</_></rects>
      <tilted>0</tilted></_>
    <_>
      <rects>
        <_>
          3 6 2 13 -1.</_>
        <_>
          4 6 1 13 2.</_></rects>
      <tilted>0</tilted></_>
    <_>
      <rects>
        <_>
          3 8 17 6 -1.</_>
        <_>
          3 11 17 3 2.</_></rects>
      <tilted>0</tilted></_>
    <_>
      <rects>
        <_>
          3 8 18 2 -1.</_>
        <_>
          3 9 18 1 2.</_></rects>
      <tilted>0</tilted></_>
    <_>
      <rects>
        <_>
          3 12 4 12 -1.</_>
        <_>
          3 12 2 6 2.</_>
        <_>
          5 18 2 6 2.</_></rects>
      <tilted>0</tilted></_>
    <_>
      <rects>
        <_>
          3 12 17 6 -1.</_>
        <_>
          3 15 17 3 2.</_></rects>
      <tilted>0</tilted></_>
    <_>
      <rects>
        <_>
          3 14 6 10 -1.</_>
        <_>
          3 14 3 5 2.</_>
        <_>
          6 19 3 5 2.</_></rects>
      <tilted>0</tilted></_>
    <_>
      <rects>
        <_>
          3 18 8 4 -1.</_>
        <_>
          3 18 4 2 2.</_>
        <_>
          7 20 4 2 2.</_></rects>
      <tilted>0</tilted></_>
    <_>
      <rects>
        <_>
          3 19 10 4 -1.</_>
        <_>
          3 19 5 2 2.</_>
        <_>
          8 21 5 2 2.</_></rects>
      <tilted>0</tilted></_>
    <_>
      <rects>
        <_>
          4 2 6 6 -1.</_>
        <_>
          4 2 3 3 2.</_>
        <_>
          7 5 3 3 2.</_></rects>
      <tilted>0</tilted></_>
    <_>
      <rects>
        <_>
          4 3 8 6 -1.</_>
        <_>
          4 3 4 3 2.</_>
        <_>
          8 6 4 3 2.</_></rects>
      <tilted>0</tilted></_>
    <_>
      <rects>
        <_>
          4 4 4 6 -1.</_>
        <_>
          4 4 2 3 2.</_>
        <_>
          6 7 2 3 2.</_></rects>
      <tilted>0</tilted></_>
    <_>
      <rects>
        <_>
          4 4 8 4 -1.</_>
        <_>
          4 4 4 2 2.</_>
        <_>
          8 6 4 2 2.</_></rects>
      <tilted>0</tilted></_>
    <_>
      <rects>
        <_>
          4 7 16 6 -1.</_>
        <_>
          4 10 16 3 2.</_></rects>
      <tilted>0</tilted></_>
    <_>
      <rects>
        <_>
          4 9 12 7 -1.</_>
        <_>
          10 9 6 7 2.</_></rects>
      <tilted>0</tilted></_>
    <_>
      <rects>
        <_>
          4 9 14 8 -1.</_>
        <_>
          4 9 7 4 2.</_>
        <_>
          11 13 7 4 2.</_></rects>
      <tilted>0</tilted></_>
    <_>
      <rects>
        <_>
          4 10 2 14 -1.</_>
        <_>
          4 17 2 7 2.</_></rects>
      <tilted>0</tilted></_>
    <_>
      <rects>
        <_>
          4 10 6 6 -1.</_>
        <_>
          7 10 3 6 2.</_></rects>
      <tilted>0</tilted></_>
    <_>
      <rects>
        <_>
          4 10 10 2 -1.</_>
        <_>
          4 10 5 1 2.</_>
        <_>
          9 11 5 1 2.</_></rects>
      <tilted>0</tilted></_>
    <_>
      <rects>
        <_>
          4 10 17 2 -1.</_>
        <_>
          4 11 17 1 2.</_></rects>
      <tilted>0</tilted></_>
    <_>
      <rects>
        <_>
          4 10 18 2 -1.</_>
        <_>
          4 11 18 1 2.</_></rects>
      <tilted>0</tilted></_>
    <_>
      <rects>
        <_>
          4 11 6 2 -1.</_>
        <_>
          7 11 3 2 2.</_></rects>
      <tilted>0</tilted></_>
    <_>
      <rects>
        <_>
          4 11 6 3 -1.</_>
        <_>
          7 11 3 3 2.</_></rects>
      <tilted>0</tilted></_>
    <_>
      <rects>
        <_>
          4 11 16 2 -1.</_>
        <_>
          4 12 16 1 2.</_></rects>
      <tilted>0</tilted></_>
    <_>
      <rects>
        <_>
          4 13 4 10 -1.</_>
        <_>
          4 13 2 5 2.</_>
        <_>
          6 18 2 5 2.</_></rects>
      <tilted>0</tilted></_>
    <_>
      <rects>
        <_>
          4 13 6 2 -1.</_>
        <_>
          4 14 6 1 2.</_></rects>
      <tilted>0</tilted></_>
    <_>
      <rects>
        <_>
          4 13 14 2 -1.</_>
        <_>
          4 13 7 1 2.</_>
        <_>
          11 14 7 1 2.</_></rects>
      <tilted>0</tilted></_>
    <_>
      <rects>
        <_>
          4 13 17 2 -1.</_>
        <_>
          4 14 17 1 2.</_></rects>
      <tilted>0</tilted></_>
    <_>
      <rects>
        <_>
          4 15 15 9 -1.</_>
        <_>
          4 18 15 3 2.</_></rects>
      <tilted>0</tilted></_>
    <_>
      <rects>
        <_>
          4 17 2 2 -1.</_>
        <_>
          4 17 1 1 2.</_>
        <_>
          5 18 1 1 2.</_></rects>
      <tilted>0</tilted></_>
    <_>
      <rects>
        <_>
          4 18 8 6 -1.</_>
        <_>
          4 18 4 3 2.</_>
        <_>
          8 21 4 3 2.</_></rects>
      <tilted>0</tilted></_>
    <_>
      <rects>
        <_>
          5 0 13 4 -1.</_>
        <_>
          5 2 13 2 2.</_></rects>
      <tilted>0</tilted></_>
    <_>
      <rects>
        <_>
          5 5 6 4 -1.</_>
        <_>
          5 5 3 2 2.</_>
        <_>
          8 7 3 2 2.</_></rects>
      <tilted>0</tilted></_>
    <_>
      <rects>
        <_>
          5 5 19 4 -1.</_>
        <_>
          5 7 19 2 2.</_></rects>
      <tilted>0</tilted></_>
    <_>
      <rects>
        <_>
          5 9 14 6 -1.</_>
        <_>
          5 9 7 3 2.</_>
        <_>
          12 12 7 3 2.</_></rects>
      <tilted>0</tilted></_>
    <_>
      <rects>
        <_>
          5 9 16 2 -1.</_>
        <_>
          5 9 8 1 2.</_>
        <_>
          13 10 8 1 2.</_></rects>
      <tilted>0</tilted></_>
    <_>
      <rects>
        <_>
          5 11 1 2 -1.</_>
        <_>
          5 12 1 1 2.</_></rects>
      <tilted>0</tilted></_>
    <_>
      <rects>
        <_>
          5 11 5 2 -1.</_>
        <_>
          5 12 5 1 2.</_></rects>
      <tilted>0</tilted></_>
    <_>
      <rects>
        <_>
          5 11 14 2 -1.</_>
        <_>
          5 11 7 1 2.</_>
        <_>
          12 12 7 1 2.</_></rects>
      <tilted>0</tilted></_>
    <_>
      <rects>
        <_>
          5 12 5 2 -1.</_>
        <_>
          5 13 5 1 2.</_></rects>
      <tilted>0</tilted></_>
    <_>
      <rects>
        <_>
          5 15 4 6 -1.</_>
        <_>
          5 15 2 3 2.</_>
        <_>
          7 18 2 3 2.</_></rects>
      <tilted>0</tilted></_>
    <_>
      <rects>
        <_>
          5 15 8 2 -1.</_>
        <_>
          9 15 4 2 2.</_></rects>
      <tilted>0</tilted></_>
    <_>
      <rects>
        <_>
          5 16 5 8 -1.</_>
        <_>
          5 20 5 4 2.</_></rects>
      <tilted>0</tilted></_>
    <_>
      <rects>
        <_>
          5 17 6 4 -1.</_>
        <_>
          5 17 3 2 2.</_>
        <_>
          8 19 3 2 2.</_></rects>
      <tilted>0</tilted></_>
    <_>
      <rects>
        <_>
          5 18 11 6 -1.</_>
        <_>
          5 20 11 2 2.</_></rects>
      <tilted>0</tilted></_>
    <_>
      <rects>
        <_>
          6 1 2 9 -1.</_>
        <_>
          7 1 1 9 2.</_></rects>
      <tilted>0</tilted></_>
    <_>
      <rects>
        <_>
          6 7 6 4 -1.</_>
        <_>
          6 7 3 2 2.</_>
        <_>
          9 9 3 2 2.</_></rects>
      <tilted>0</tilted></_>
    <_>
      <rects>
        <_>
          6 7 18 2 -1.</_>
        <_>
          12 7 6 2 2.</_></rects>
      <tilted>0</tilted></_>
    <_>
      <rects>
        <_>
          6 7 12 10 -1.</_>
        <_>
          6 7 6 5 2.</_>
        <_>
          12 12 6 5 2.</_></rects>
      <tilted>0</tilted></_>
    <_>
      <rects>
        <_>
          6 7 17 2 -1.</_>
        <_>
          6 8 17 1 2.</_></rects>
      <tilted>0</tilted></_>
    <_>
      <rects>
        <_>
          7 2 10 4 -1.</_>
        <_>
          7 4 10 2 2.</_></rects>
      <tilted>0</tilted></_>
    <_>
      <rects>
        <_>
          7 6 4 6 -1.</_>
        <_>
          7 6 2 3 2.</_>
        <_>
          9 9 2 3 2.</_></rects>
      <tilted>0</tilted></_>
    <_>
      <rects>
        <_>
          7 7 4 4 -1.</_>
        <_>
          7 7 2 2 2.</_>
        <_>
          9 9 2 2 2.</_></rects>
      <tilted>0</tilted></_>
    <_>
      <rects>
        <_>
          7 7 12 14 -1.</_>
        <_>
          7 7 6 7 2.</_>
        <_>
          13 14 6 7 2.</_></rects>
      <tilted>0</tilted></_>
    <_>
      <rects>
        <_>
          7 8 6 4 -1.</_>
        <_>
          7 8 3 2 2.</_>
        <_>
          10 10 3 2 2.</_></rects>
      <tilted>0</tilted></_>
    <_>
      <rects>
        <_>
          7 8 8 13 -1.</_>
        <_>
          11 8 4 13 2.</_></rects>
      <tilted>0</tilted></_>
    <_>
      <rects>
        <_>
          7 10 6 8 -1.</_>
        <_>
          7 14 6 4 2.</_></rects>
      <tilted>0</tilted></_>
    <_>
      <rects>
        <_>
          7 11 2 12 -1.</_>
        <_>
          7 15 2 4 2.</_></rects>
      <tilted>0</tilted></_>
    <_>
      <rects>
        <_>
          7 12 2 2 -1.</_>
        <_>
          8 12 1 2 2.</_></rects>
      <tilted>0</tilted></_>
    <_>
      <rects>
        <_>
          7 12 12 2 -1.</_>
        <_>
          13 12 6 2 2.</_></rects>
      <tilted>0</tilted></_>
    <_>
      <rects>
        <_>
          7 12 12 3 -1.</_>
        <_>
          13 12 6 3 2.</_></rects>
      <tilted>0</tilted></_>
    <_>
      <rects>
        <_>
          7 13 6 4 -1.</_>
        <_>
          7 13 3 2 2.</_>
        <_>
          10 15 3 2 2.</_></rects>
      <tilted>0</tilted></_>
    <_>
      <rects>
        <_>
          7 19 10 2 -1.</_>
        <_>
          7 20 10 1 2.</_></rects>
      <tilted>0</tilted></_>
    <_>
      <rects>
        <_>
          8 0 1 16 -1.</_>
        <_>
          8 8 1 8 2.</_></rects>
      <tilted>0</tilted></_>
    <_>
      <rects>
        <_>
          8 2 3 4 -1.</_>
        <_>
          8 4 3 2 2.</_></rects>
      <tilted>0</tilted></_>
    <_>
      <rects>
        <_>
          8 2 8 4 -1.</_>
        <_>
          8 4 8 2 2.</_></rects>
      <tilted>0</tilted></_>
    <_>
      <rects>
        <_>
          8 4 2 17 -1.</_>
        <_>
          9 4 1 17 2.</_></rects>
      <tilted>0</tilted></_>
    <_>
      <rects>
        <_>
          8 5 8 16 -1.</_>
        <_>
          8 5 4 8 2.</_>
        <_>
          12 13 4 8 2.</_></rects>
      <tilted>0</tilted></_>
    <_>
      <rects>
        <_>
          8 5 8 17 -1.</_>
        <_>
          12 5 4 17 2.</_></rects>
      <tilted>0</tilted></_>
    <_>
      <rects>
        <_>
          8 6 8 15 -1.</_>
        <_>
          12 6 4 15 2.</_></rects>
      <tilted>0</tilted></_>
    <_>
      <rects>
        <_>
          8 8 12 10 -1.</_>
        <_>
          14 8 6 10 2.</_></rects>
      <tilted>0</tilted></_>
    <_>
      <rects>
        <_>
          8 9 7 10 -1.</_>
        <_>
          8 14 7 5 2.</_></rects>
      <tilted>0</tilted></_>
    <_>
      <rects>
        <_>
          8 10 12 2 -1.</_>
        <_>
          8 10 6 1 2.</_>
        <_>
          14 11 6 1 2.</_></rects>
      <tilted>0</tilted></_>
    <_>
      <rects>
        <_>
          8 11 1 12 -1.</_>
        <_>
          8 15 1 4 2.</_></rects>
      <tilted>0</tilted></_>
    <_>
      <rects>
        <_>
          8 11 4 3 -1.</_>
        <_>
          10 11 2 3 2.</_></rects>
      <tilted>0</tilted></_>
    <_>
      <rects>
        <_>
          8 12 4 2 -1.</_>
        <_>
          10 12 2 2 2.</_></rects>
      <tilted>0</tilted></_>
    <_>
      <rects>
        <_>
          8 13 2 2 -1.</_>
        <_>
          8 13 1 1 2.</_>
        <_>
          9 14 1 1 2.</_></rects>
      <tilted>0</tilted></_>
    <_>
      <rects>
        <_>
          8 15 4 5 -1.</_>
        <_>
          10 15 2 5 2.</_></rects>
      <tilted>0</tilted></_>
    <_>
      <rects>
        <_>
          8 15 8 4 -1.</_>
        <_>
          8 17 8 2 2.</_></rects>
      <tilted>0</tilted></_>
    <_>
      <rects>
        <_>
          8 18 13 6 -1.</_>
        <_>
          8 21 13 3 2.</_></rects>
      <tilted>0</tilted></_>
    <_>
      <rects>
        <_>
          8 20 9 4 -1.</_>
        <_>
          8 22 9 2 2.</_></rects>
      <tilted>0</tilted></_>
    <_>
      <rects>
        <_>
          9 2 4 4 -1.</_>
        <_>
          9 4 4 2 2.</_></rects>
      <tilted>0</tilted></_>
    <_>
      <rects>
        <_>
          9 4 8 16 -1.</_>
        <_>
          9 4 4 8 2.</_>
        <_>
          13 12 4 8 2.</_></rects>
      <tilted>0</tilted></_>
    <_>
      <rects>
        <_>
          9 5 5 2 -1.</_>
        <_>
          9 6 5 1 2.</_></rects>
      <tilted>0</tilted></_>
    <_>
      <rects>
        <_>
          9 9 6 4 -1.</_>
        <_>
          9 11 6 2 2.</_></rects>
      <tilted>0</tilted></_>
    <_>
      <rects>
        <_>
          9 10 2 2 -1.</_>
        <_>
          9 10 1 1 2.</_>
        <_>
          10 11 1 1 2.</_></rects>
      <tilted>0</tilted></_>
    <_>
      <rects>
        <_>
          9 10 10 7 -1.</_>
        <_>
          14 10 5 7 2.</_></rects>
      <tilted>0</tilted></_>
    <_>
      <rects>
        <_>
          9 10 12 5 -1.</_>
        <_>
          15 10 6 5 2.</_></rects>
      <tilted>0</tilted></_>
    <_>
      <rects>
        <_>
          9 11 2 2 -1.</_>
        <_>
          10 11 1 2 2.</_></rects>
      <tilted>0</tilted></_>
    <_>
      <rects>
        <_>
          9 12 5 10 -1.</_>
        <_>
          9 17 5 5 2.</_></rects>
      <tilted>0</tilted></_>
    <_>
      <rects>
        <_>
          9 13 2 2 -1.</_>
        <_>
          9 13 1 1 2.</_>
        <_>
          10 14 1 1 2.</_></rects>
      <tilted>0</tilted></_>
    <_>
      <rects>
        <_>
          9 14 3 1 -1.</_>
        <_>
          10 14 1 1 2.</_></rects>
      <tilted>0</tilted></_>
    <_>
      <rects>
        <_>
          9 15 3 6 -1.</_>
        <_>
          9 18 3 3 2.</_></rects>
      <tilted>0</tilted></_>
    <_>
      <rects>
        <_>
          9 15 10 2 -1.</_>
        <_>
          14 15 5 2 2.</_></rects>
      <tilted>0</tilted></_>
    <_>
      <rects>
        <_>
          9 20 6 4 -1.</_>
        <_>
          9 22 6 2 2.</_></rects>
      <tilted>0</tilted></_>
    <_>
      <rects>
        <_>
          10 1 6 6 -1.</_>
        <_>
          10 4 6 3 2.</_></rects>
      <tilted>0</tilted></_>
    <_>
      <rects>
        <_>
          10 4 2 6 -1.</_>
        <_>
          11 4 1 6 2.</_></rects>
      <tilted>0</tilted></_>
    <_>
      <rects>
        <_>
          10 4 4 16 -1.</_>
        <_>
          10 4 2 8 2.</_>
        <_>
          12 12 2 8 2.</_></rects>
      <tilted>0</tilted></_>
    <_>
      <rects>
        <_>
          10 4 5 10 -1.</_>
        <_>
          10 9 5 5 2.</_></rects>
      <tilted>0</tilted></_>
    <_>
      <rects>
        <_>
          10 5 2 5 -1.</_>
        <_>
          11 5 1 5 2.</_></rects>
      <tilted>0</tilted></_>
    <_>
      <rects>
        <_>
          10 5 2 15 -1.</_>
        <_>
          11 5 1 15 2.</_></rects>
      <tilted>0</tilted></_>
    <_>
      <rects>
        <_>
          10 5 8 14 -1.</_>
        <_>
          14 5 4 14 2.</_></rects>
      <tilted>0</tilted></_>
    <_>
      <rects>
        <_>
          10 6 2 15 -1.</_>
        <_>
          11 6 1 15 2.</_></rects>
      <tilted>0</tilted></_>
    <_>
      <rects>
        <_>
          10 9 2 2 -1.</_>
        <_>
          10 10 2 1 2.</_></rects>
      <tilted>0</tilted></_>
    <_>
      <rects>
        <_>
          10 9 4 4 -1.</_>
        <_>
          10 11 4 2 2.</_></rects>
      <tilted>0</tilted></_>
    <_>
      <rects>
        <_>
          10 9 4 12 -1.</_>
        <_>
          10 15 4 6 2.</_></rects>
      <tilted>0</tilted></_>
    <_>
      <rects>
        <_>
          10 10 2 2 -1.</_>
        <_>
          10 10 1 1 2.</_>
        <_>
          11 11 1 1 2.</_></rects>
      <tilted>0</tilted></_>
    <_>
      <rects>
        <_>
          10 10 5 10 -1.</_>
        <_>
          10 15 5 5 2.</_></rects>
      <tilted>0</tilted></_>
    <_>
      <rects>
        <_>
          10 12 6 8 -1.</_>
        <_>
          10 16 6 4 2.</_></rects>
      <tilted>0</tilted></_>
    <_>
      <rects>
        <_>
          10 13 2 2 -1.</_>
        <_>
          10 13 1 1 2.</_>
        <_>
          11 14 1 1 2.</_></rects>
      <tilted>0</tilted></_>
    <_>
      <rects>
        <_>
          10 13 2 7 -1.</_>
        <_>
          11 13 1 7 2.</_></rects>
      <tilted>0</tilted></_>
    <_>
      <rects>
        <_>
          10 14 3 2 -1.</_>
        <_>
          11 14 1 2 2.</_></rects>
      <tilted>0</tilted></_>
    <_>
      <rects>
        <_>
          10 14 6 6 -1.</_>
        <_>
          13 14 3 6 2.</_></rects>
      <tilted>0</tilted></_>
    <_>
      <rects>
        <_>
          10 14 4 8 -1.</_>
        <_>
          10 18 4 4 2.</_></rects>
      <tilted>0</tilted></_>
    <_>
      <rects>
        <_>
          10 15 4 6 -1.</_>
        <_>
          12 15 2 6 2.</_></rects>
      <tilted>0</tilted></_>
    <_>
      <rects>
        <_>
          10 15 5 2 -1.</_>
        <_>
          10 16 5 1 2.</_></rects>
      <tilted>0</tilted></_>
    <_>
      <rects>
        <_>
          10 15 14 6 -1.</_>
        <_>
          10 15 7 3 2.</_>
        <_>
          17 18 7 3 2.</_></rects>
      <tilted>0</tilted></_>
    <_>
      <rects>
        <_>
          10 16 2 2 -1.</_>
        <_>
          10 16 1 1 2.</_>
        <_>
          11 17 1 1 2.</_></rects>
      <tilted>0</tilted></_>
    <_>
      <rects>
        <_>
          10 17 2 2 -1.</_>
        <_>
          10 17 1 1 2.</_>
        <_>
          11 18 1 1 2.</_></rects>
      <tilted>0</tilted></_>
    <_>
      <rects>
        <_>
          10 20 12 2 -1.</_>
        <_>
          10 20 6 1 2.</_>
        <_>
          16 21 6 1 2.</_></rects>
      <tilted>0</tilted></_>
    <_>
      <rects>
        <_>
          11 0 9 6 -1.</_>
        <_>
          11 3 9 3 2.</_></rects>
      <tilted>0</tilted></_>
    <_>
      <rects>
        <_>
          11 2 10 4 -1.</_>
        <_>
          11 2 5 2 2.</_>
        <_>
          16 4 5 2 2.</_></rects>
      <tilted>0</tilted></_>
    <_>
      <rects>
        <_>
          11 3 2 6 -1.</_>
        <_>
          12 3 1 6 2.</_></rects>
      <tilted>0</tilted></_>
    <_>
      <rects>
        <_>
          11 3 2 8 -1.</_>
        <_>
          12 3 1 8 2.</_></rects>
      <tilted>0</tilted></_>
    <_>
      <rects>
        <_>
          11 4 2 6 -1.</_>
        <_>
          12 4 1 6 2.</_></rects>
      <tilted>0</tilted></_>
    <_>
      <rects>
        <_>
          11 5 2 1 -1.</_>
        <_>
          12 5 1 1 2.</_></rects>
      <tilted>0</tilted></_>
    <_>
      <rects>
        <_>
          11 5 2 2 -1.</_>
        <_>
          11 5 1 1 2.</_>
        <_>
          12 6 1 1 2.</_></rects>
      <tilted>0</tilted></_>
    <_>
      <rects>
        <_>
          11 5 2 14 -1.</_>
        <_>
          11 5 1 7 2.</_>
        <_>
          12 12 1 7 2.</_></rects>
      <tilted>0</tilted></_>
    <_>
      <rects>
        <_>
          11 5 3 10 -1.</_>
        <_>
          11 10 3 5 2.</_></rects>
      <tilted>0</tilted></_>
    <_>
      <rects>
        <_>
          11 6 8 16 -1.</_>
        <_>
          11 6 4 8 2.</_>
        <_>
          15 14 4 8 2.</_></rects>
      <tilted>0</tilted></_>
    <_>
      <rects>
        <_>
          11 7 1 12 -1.</_>
        <_>
          11 13 1 6 2.</_></rects>
      <tilted>0</tilted></_>
    <_>
      <rects>
        <_>
          11 7 6 6 -1.</_>
        <_>
          11 7 3 3 2.</_>
        <_>
          14 10 3 3 2.</_></rects>
      <tilted>0</tilted></_>
    <_>
      <rects>
        <_>
          11 9 1 4 -1.</_>
        <_>
          11 11 1 2 2.</_></rects>
      <tilted>0</tilted></_>
    <_>
      <rects>
        <_>
          11 9 2 2 -1.</_>
        <_>
          11 10 2 1 2.</_></rects>
      <tilted>0</tilted></_>
    <_>
      <rects>
        <_>
          11 10 2 2 -1.</_>
        <_>
          11 11 2 1 2.</_></rects>
      <tilted>0</tilted></_>
    <_>
      <rects>
        <_>
          11 10 8 10 -1.</_>
        <_>
          11 15 8 5 2.</_></rects>
      <tilted>0</tilted></_>
    <_>
      <rects>
        <_>
          11 11 2 4 -1.</_>
        <_>
          11 13 2 2 2.</_></rects>
      <tilted>0</tilted></_>
    <_>
      <rects>
        <_>
          11 12 10 1 -1.</_>
        <_>
          16 12 5 1 2.</_></rects>
      <tilted>0</tilted></_>
    <_>
      <rects>
        <_>
          11 13 4 8 -1.</_>
        <_>
          13 13 2 8 2.</_></rects>
      <tilted>0</tilted></_>
    <_>
      <rects>
        <_>
          11 14 2 4 -1.</_>
        <_>
          11 16 2 2 2.</_></rects>
      <tilted>0</tilted></_>
    <_>
      <rects>
        <_>
          11 14 8 4 -1.</_>
        <_>
          15 14 4 4 2.</_></rects>
      <tilted>0</tilted></_>
    <_>
      <rects>
        <_>
          11 15 1 9 -1.</_>
        <_>
          11 18 1 3 2.</_></rects>
      <tilted>0</tilted></_>
    <_>
      <rects>
        <_>
          11 15 2 6 -1.</_>
        <_>
          12 15 1 6 2.</_></rects>
      <tilted>0</tilted></_>
    <_>
      <rects>
        <_>
          11 16 2 5 -1.</_>
        <_>
          12 16 1 5 2.</_></rects>
      <tilted>0</tilted></_>
    <_>
      <rects>
        <_>
          11 16 2 2 -1.</_>
        <_>
          11 17 2 1 2.</_></rects>
      <tilted>0</tilted></_>
    <_>
      <rects>
        <_>
          11 16 4 2 -1.</_>
        <_>
          11 17 4 1 2.</_></rects>
      <tilted>0</tilted></_>
    <_>
      <rects>
        <_>
          11 21 4 2 -1.</_>
        <_>
          11 22 4 1 2.</_></rects>
      <tilted>0</tilted></_>
    <_>
      <rects>
        <_>
          12 2 8 8 -1.</_>
        <_>
          12 2 4 4 2.</_>
        <_>
          16 6 4 4 2.</_></rects>
      <tilted>0</tilted></_>
    <_>
      <rects>
        <_>
          12 3 10 4 -1.</_>
        <_>
          12 3 5 2 2.</_>
        <_>
          17 5 5 2 2.</_></rects>
      <tilted>0</tilted></_>
    <_>
      <rects>
        <_>
          12 4 2 17 -1.</_>
        <_>
          13 4 1 17 2.</_></rects>
      <tilted>0</tilted></_>
    <_>
      <rects>
        <_>
          12 4 6 18 -1.</_>
        <_>
          15 4 3 18 2.</_></rects>
      <tilted>0</tilted></_>
    <_>
      <rects>
        <_>
          12 4 8 4 -1.</_>
        <_>
          12 4 4 2 2.</_>
        <_>
          16 6 4 2 2.</_></rects>
      <tilted>0</tilted></_>
    <_>
      <rects>
        <_>
          12 4 12 10 -1.</_>
        <_>
          16 4 4 10 2.</_></rects>
      <tilted>0</tilted></_>
    <_>
      <rects>
        <_>
          12 5 2 6 -1.</_>
        <_>
          13 5 1 6 2.</_></rects>
      <tilted>0</tilted></_>
    <_>
      <rects>
        <_>
          12 5 6 8 -1.</_>
        <_>
          12 9 6 4 2.</_></rects>
      <tilted>0</tilted></_>
    <_>
      <rects>
        <_>
          12 7 2 6 -1.</_>
        <_>
          12 10 2 3 2.</_></rects>
      <tilted>0</tilted></_>
    <_>
      <rects>
        <_>
          12 9 12 1 -1.</_>
        <_>
          16 9 4 1 2.</_></rects>
      <tilted>0</tilted></_>
    <_>
      <rects>
        <_>
          12 9 12 2 -1.</_>
        <_>
          16 9 4 2 2.</_></rects>
      <tilted>0</tilted></_>
    <_>
      <rects>
        <_>
          12 10 8 2 -1.</_>
        <_>
          16 10 4 2 2.</_></rects>
      <tilted>0</tilted></_>
    <_>
      <rects>
        <_>
          12 11 7 2 -1.</_>
        <_>
          12 12 7 1 2.</_></rects>
      <tilted>0</tilted></_>
    <_>
      <rects>
        <_>
          12 12 2 2 -1.</_>
        <_>
          12 12 1 1 2.</_>
        <_>
          13 13 1 1 2.</_></rects>
      <tilted>0</tilted></_>
    <_>
      <rects>
        <_>
          12 12 4 6 -1.</_>
        <_>
          12 12 2 3 2.</_>
        <_>
          14 15 2 3 2.</_></rects>
      <tilted>0</tilted></_>
    <_>
      <rects>
        <_>
          12 13 8 3 -1.</_>
        <_>
          16 13 4 3 2.</_></rects>
      <tilted>0</tilted></_>
    <_>
      <rects>
        <_>
          12 14 2 2 -1.</_>
        <_>
          12 14 1 1 2.</_>
        <_>
          13 15 1 1 2.</_></rects>
      <tilted>0</tilted></_>
    <_>
      <rects>
        <_>
          12 14 3 9 -1.</_>
        <_>
          12 17 3 3 2.</_></rects>
      <tilted>0</tilted></_>
    <_>
      <rects>
        <_>
          12 18 2 2 -1.</_>
        <_>
          12 18 1 1 2.</_>
        <_>
          13 19 1 1 2.</_></rects>
      <tilted>0</tilted></_>
    <_>
      <rects>
        <_>
          12 18 10 4 -1.</_>
        <_>
          12 18 5 2 2.</_>
        <_>
          17 20 5 2 2.</_></rects>
      <tilted>0</tilted></_>
    <_>
      <rects>
        <_>
          12 19 3 4 -1.</_>
        <_>
          12 21 3 2 2.</_></rects>
      <tilted>0</tilted></_>
    <_>
      <rects>
        <_>
          13 0 10 10 -1.</_>
        <_>
          18 0 5 10 2.</_></rects>
      <tilted>0</tilted></_>
    <_>
      <rects>
        <_>
          13 3 2 8 -1.</_>
        <_>
          14 3 1 8 2.</_></rects>
      <tilted>0</tilted></_>
    <_>
      <rects>
        <_>
          13 4 1 18 -1.</_>
        <_>
          13 13 1 9 2.</_></rects>
      <tilted>0</tilted></_>
    <_>
      <rects>
        <_>
          13 6 2 16 -1.</_>
        <_>
          14 6 1 16 2.</_></rects>
      <tilted>0</tilted></_>
    <_>
      <rects>
        <_>
          13 6 4 8 -1.</_>
        <_>
          13 10 4 4 2.</_></rects>
      <tilted>0</tilted></_>
    <_>
      <rects>
        <_>
          13 7 6 11 -1.</_>
        <_>
          16 7 3 11 2.</_></rects>
      <tilted>0</tilted></_>
    <_>
      <rects>
        <_>
          13 8 7 2 -1.</_>
        <_>
          13 9 7 1 2.</_></rects>
      <tilted>0</tilted></_>
    <_>
      <rects>
        <_>
          13 11 2 3 -1.</_>
        <_>
          14 11 1 3 2.</_></rects>
      <tilted>0</tilted></_>
    <_>
      <rects>
        <_>
          13 12 4 2 -1.</_>
        <_>
          15 12 2 2 2.</_></rects>
      <tilted>0</tilted></_>
    <_>
      <rects>
        <_>
          13 12 4 8 -1.</_>
        <_>
          13 12 2 4 2.</_>
        <_>
          15 16 2 4 2.</_></rects>
      <tilted>0</tilted></_>
    <_>
      <rects>
        <_>
          13 12 6 2 -1.</_>
        <_>
          13 13 6 1 2.</_></rects>
      <tilted>0</tilted></_>
    <_>
      <rects>
        <_>
          13 13 2 2 -1.</_>
        <_>
          13 13 1 1 2.</_>
        <_>
          14 14 1 1 2.</_></rects>
      <tilted>0</tilted></_>
    <_>
      <rects>
        <_>
          13 15 7 2 -1.</_>
        <_>
          13 16 7 1 2.</_></rects>
      <tilted>0</tilted></_>
    <_>
      <rects>
        <_>
          13 16 2 5 -1.</_>
        <_>
          14 16 1 5 2.</_></rects>
      <tilted>0</tilted></_>
    <_>
      <rects>
        <_>
          14 0 1 16 -1.</_>
        <_>
          14 8 1 8 2.</_></rects>
      <tilted>0</tilted></_>
    <_>
      <rects>
        <_>
          14 6 6 4 -1.</_>
        <_>
          14 6 3 2 2.</_>
        <_>
          17 8 3 2 2.</_></rects>
      <tilted>0</tilted></_>
    <_>
      <rects>
        <_>
          14 9 5 2 -1.</_>
        <_>
          14 10 5 1 2.</_></rects>
      <tilted>0</tilted></_>
    <_>
      <rects>
        <_>
          14 10 7 2 -1.</_>
        <_>
          14 11 7 1 2.</_></rects>
      <tilted>0</tilted></_>
    <_>
      <rects>
        <_>
          14 11 2 3 -1.</_>
        <_>
          15 11 1 3 2.</_></rects>
      <tilted>0</tilted></_>
    <_>
      <rects>
        <_>
          14 11 4 1 -1.</_>
        <_>
          16 11 2 1 2.</_></rects>
      <tilted>0</tilted></_>
    <_>
      <rects>
        <_>
          14 11 6 3 -1.</_>
        <_>
          17 11 3 3 2.</_></rects>
      <tilted>0</tilted></_>
    <_>
      <rects>
        <_>
          14 11 5 4 -1.</_>
        <_>
          14 13 5 2 2.</_></rects>
      <tilted>0</tilted></_>
    <_>
      <rects>
        <_>
          14 11 6 2 -1.</_>
        <_>
          14 12 6 1 2.</_></rects>
      <tilted>0</tilted></_>
    <_>
      <rects>
        <_>
          14 12 6 2 -1.</_>
        <_>
          14 13 6 1 2.</_></rects>
      <tilted>0</tilted></_>
    <_>
      <rects>
        <_>
          14 13 5 2 -1.</_>
        <_>
          14 14 5 1 2.</_></rects>
      <tilted>0</tilted></_>
    <_>
      <rects>
        <_>
          14 13 6 2 -1.</_>
        <_>
          14 14 6 1 2.</_></rects>
      <tilted>0</tilted></_>
    <_>
      <rects>
        <_>
          14 15 8 2 -1.</_>
        <_>
          14 16 8 1 2.</_></rects>
      <tilted>0</tilted></_>
    <_>
      <rects>
        <_>
          14 16 9 8 -1.</_>
        <_>
          14 20 9 4 2.</_></rects>
      <tilted>0</tilted></_>
    <_>
      <rects>
        <_>
          15 3 6 6 -1.</_>
        <_>
          15 3 3 3 2.</_>
        <_>
          18 6 3 3 2.</_></rects>
      <tilted>0</tilted></_>
    <_>
      <rects>
        <_>
          15 7 2 2 -1.</_>
        <_>
          15 7 1 1 2.</_>
        <_>
          16 8 1 1 2.</_></rects>
      <tilted>0</tilted></_>
    <_>
      <rects>
        <_>
          15 10 2 3 -1.</_>
        <_>
          16 10 1 3 2.</_></rects>
      <tilted>0</tilted></_>
    <_>
      <rects>
        <_>
          15 10 2 4 -1.</_>
        <_>
          16 10 1 4 2.</_></rects>
      <tilted>0</tilted></_>
    <_>
      <rects>
        <_>
          15 11 2 2 -1.</_>
        <_>
          15 11 1 1 2.</_>
        <_>
          16 12 1 1 2.</_></rects>
      <tilted>0</tilted></_>
    <_>
      <rects>
        <_>
          15 11 1 12 -1.</_>
        <_>
          15 15 1 4 2.</_></rects>
      <tilted>0</tilted></_>
    <_>
      <rects>
        <_>
          15 11 4 4 -1.</_>
        <_>
          17 11 2 4 2.</_></rects>
      <tilted>0</tilted></_>
    <_>
      <rects>
        <_>
          15 19 2 4 -1.</_>
        <_>
          15 21 2 2 2.</_></rects>
      <tilted>0</tilted></_>
    <_>
      <rects>
        <_>
          16 3 1 6 -1.</_>
        <_>
          16 5 1 2 2.</_></rects>
      <tilted>0</tilted></_>
    <_>
      <rects>
        <_>
          16 3 4 10 -1.</_>
        <_>
          16 3 2 5 2.</_>
        <_>
          18 8 2 5 2.</_></rects>
      <tilted>0</tilted></_>
    <_>
      <rects>
        <_>
          16 4 2 4 -1.</_>
        <_>
          16 6 2 2 2.</_></rects>
      <tilted>0</tilted></_>
    <_>
      <rects>
        <_>
          16 4 6 6 -1.</_>
        <_>
          16 4 3 3 2.</_>
        <_>
          19 7 3 3 2.</_></rects>
      <tilted>0</tilted></_>
    <_>
      <rects>
        <_>
          16 4 8 20 -1.</_>
        <_>
          20 4 4 20 2.</_></rects>
      <tilted>0</tilted></_>
    <_>
      <rects>
        <_>
          16 5 4 8 -1.</_>
        <_>
          16 5 2 4 2.</_>
        <_>
          18 9 2 4 2.</_></rects>
      <tilted>0</tilted></_>
    <_>
      <rects>
        <_>
          16 5 8 5 -1.</_>
        <_>
          20 5 4 5 2.</_></rects>
      <tilted>0</tilted></_>
    <_>
      <rects>
        <_>
          16 5 8 14 -1.</_>
        <_>
          20 5 4 14 2.</_></rects>
      <tilted>0</tilted></_>
    <_>
      <rects>
        <_>
          16 6 2 18 -1.</_>
        <_>
          17 6 1 18 2.</_></rects>
      <tilted>0</tilted></_>
    <_>
      <rects>
        <_>
          16 11 1 2 -1.</_>
        <_>
          16 12 1 1 2.</_></rects>
      <tilted>0</tilted></_>
    <_>
      <rects>
        <_>
          16 12 2 8 -1.</_>
        <_>
          16 12 1 4 2.</_>
        <_>
          17 16 1 4 2.</_></rects>
      <tilted>0</tilted></_>
    <_>
      <rects>
        <_>
          16 12 2 2 -1.</_>
        <_>
          16 13 2 1 2.</_></rects>
      <tilted>0</tilted></_>
    <_>
      <rects>
        <_>
          16 14 3 2 -1.</_>
        <_>
          16 15 3 1 2.</_></rects>
      <tilted>0</tilted></_>
    <_>
      <rects>
        <_>
          16 17 4 2 -1.</_>
        <_>
          18 17 2 2 2.</_></rects>
      <tilted>0</tilted></_>
    <_>
      <rects>
        <_>
          17 3 4 12 -1.</_>
        <_>
          17 3 2 6 2.</_>
        <_>
          19 9 2 6 2.</_></rects>
      <tilted>0</tilted></_>
    <_>
      <rects>
        <_>
          17 4 4 12 -1.</_>
        <_>
          17 4 2 6 2.</_>
        <_>
          19 10 2 6 2.</_></rects>
      <tilted>0</tilted></_>
    <_>
      <rects>
        <_>
          17 13 1 2 -1.</_>
        <_>
          17 14 1 1 2.</_></rects>
      <tilted>0</tilted></_>
    <_>
      <rects>
        <_>
          17 13 4 10 -1.</_>
        <_>
          17 13 2 5 2.</_>
        <_>
          19 18 2 5 2.</_></rects>
      <tilted>0</tilted></_>
    <_>
      <rects>
        <_>
          18 1 4 14 -1.</_>
        <_>
          18 1 2 7 2.</_>
        <_>
          20 8 2 7 2.</_></rects>
      <tilted>0</tilted></_>
    <_>
      <rects>
        <_>
          18 2 6 12 -1.</_>
        <_>
          21 2 3 12 2.</_></rects>
      <tilted>0</tilted></_>
    <_>
      <rects>
        <_>
          18 3 4 12 -1.</_>
        <_>
          18 3 2 6 2.</_>
        <_>
          20 9 2 6 2.</_></rects>
      <tilted>0</tilted></_>
    <_>
      <rects>
        <_>
          18 5 6 14 -1.</_>
        <_>
          21 5 3 14 2.</_></rects>
      <tilted>0</tilted></_>
    <_>
      <rects>
        <_>
          18 6 4 11 -1.</_>
        <_>
          20 6 2 11 2.</_></rects>
      <tilted>0</tilted></_>
    <_>
      <rects>
        <_>
          18 10 2 12 -1.</_>
        <_>
          18 14 2 4 2.</_></rects>
      <tilted>0</tilted></_>
    <_>
      <rects>
        <_>
          18 11 4 12 -1.</_>
        <_>
          18 11 2 6 2.</_>
        <_>
          20 17 2 6 2.</_></rects>
      <tilted>0</tilted></_>
    <_>
      <rects>
        <_>
          18 14 6 10 -1.</_>
        <_>
          18 14 3 5 2.</_>
        <_>
          21 19 3 5 2.</_></rects>
      <tilted>0</tilted></_>
    <_>
      <rects>
        <_>
          18 19 2 2 -1.</_>
        <_>
          18 19 1 1 2.</_>
        <_>
          19 20 1 1 2.</_></rects>
      <tilted>0</tilted></_>
    <_>
      <rects>
        <_>
          19 4 4 8 -1.</_>
        <_>
          19 8 4 4 2.</_></rects>
      <tilted>0</tilted></_>
    <_>
      <rects>
        <_>
