<?xml version="1.0"?>
<opencv_storage>
<cascade>
  <stageType>BOOST</stageType>
  <featureType>HAAR</featureType>
  <height>50</height>
  <width>50</width>
  <stageParams>
    <boostType>GAB</boostType>
    <minHitRate>9.9500000476837158e-01</minHitRate>
    <maxFalseAlarm>5.0000000000000000e-01</maxFalseAlarm>
    <weightTrimRate>9.4999999999999996e-01</weightTrimRate>
    <maxDepth>1</maxDepth>
    <maxWeakCount>100</maxWeakCount></stageParams>
  <featureParams>
    <maxCatCount>0</maxCatCount>
    <featSize>1</featSize>
    <mode>BASIC</mode></featureParams>
  <stageNum>20</stageNum>
  <stages>
    <!-- stage 0 -->
    <_>
      <maxWeakCount>2</maxWeakCount>
      <stageThreshold>1.7004372552037239e-02</stageThreshold>
      <weakClassifiers>
        <_>
          <internalNodes>
            0 -1 54 2.9206305043771863e-04</internalNodes>
          <leafValues>
            -9.4346290826797485e-01 6.3023829460144043e-01</leafValues></_>
        <_>
          <internalNodes>
            0 -1 0 -1.0810226202011108e-01</internalNodes>
          <leafValues>
            9.6046727895736694e-01 -4.6914693713188171e-01</leafValues></_></weakClassifiers></_>
    <!-- stage 1 -->
    <_>
      <maxWeakCount>4</maxWeakCount>
      <stageThreshold>-1.0604076385498047e+00</stageThreshold>
      <weakClassifiers>
        <_>
          <internalNodes>
            0 -1 24 -4.5822095125913620e-03</internalNodes>
          <leafValues>
            7.3224043846130371e-01 -7.5621891021728516e-01</leafValues></_>
        <_>
          <internalNodes>
            0 -1 70 -4.7994850319810212e-05</internalNodes>
          <leafValues>
            4.7512719035148621e-01 -8.5331648588180542e-01</leafValues></_>
        <_>
          <internalNodes>
            0 -1 8 -1.1779142543673515e-02</internalNodes>
          <leafValues>
            7.6210260391235352e-01 -4.8443913459777832e-01</leafValues></_>
        <_>
          <internalNodes>
            0 -1 78 -3.2092481851577759e-02</internalNodes>
          <leafValues>
            8.2479709386825562e-01 -4.5489242672920227e-01</leafValues></_></weakClassifiers></_>
    <!-- stage 2 -->
    <_>
      <maxWeakCount>4</maxWeakCount>
      <stageThreshold>-4.1475826501846313e-01</stageThreshold>
      <weakClassifiers>
        <_>
          <internalNodes>
            0 -1 76 6.5976795740425587e-03</internalNodes>
          <leafValues>
            -7.3043477535247803e-01 8.0384618043899536e-01</leafValues></_>
        <_>
          <internalNodes>
            0 -1 4 -4.3636457994580269e-03</internalNodes>
          <leafValues>
            6.5427863597869873e-01 -6.7301684617996216e-01</leafValues></_>
        <_>
          <internalNodes>
            0 -1 31 4.0075308643281460e-03</internalNodes>
          <leafValues>
            -7.6041030883789063e-01 5.5709660053253174e-01</leafValues></_>
        <_>
          <internalNodes>
            0 -1 32 -1.3732557999901474e-04</internalNodes>
          <leafValues>
            -8.9817482233047485e-01 4.3159675598144531e-01</leafValues></_></weakClassifiers></_>
    <!-- stage 3 -->
    <_>
      <maxWeakCount>2</maxWeakCount>
      <stageThreshold>-1.7972211539745331e-01</stageThreshold>
      <weakClassifiers>
        <_>
          <internalNodes>
            0 -1 16 -2.0204479806125164e-03</internalNodes>
          <leafValues>
            -9.5580112934112549e-01 7.4340951442718506e-01</leafValues></_>
        <_>
          <internalNodes>
            0 -1 38 8.1279501318931580e-03</internalNodes>
          <leafValues>
            -6.7244350910186768e-01 7.7607899904251099e-01</leafValues></_></weakClassifiers></_>
    <!-- stage 4 -->
    <_>
      <maxWeakCount>5</maxWeakCount>
      <stageThreshold>-9.7239750623703003e-01</stageThreshold>
      <weakClassifiers>
        <_>
          <internalNodes>
            0 -1 37 7.9094490502029657e-05</internalNodes>
          <leafValues>
            -9.2307692766189575e-01 6.2932455539703369e-01</leafValues></_>
        <_>
          <internalNodes>
            0 -1 40 2.4104004842229187e-04</internalNodes>
          <leafValues>
            4.1581997275352478e-01 -8.7052828073501587e-01</leafValues></_>
        <_>
          <internalNodes>
            0 -1 47 3.1637228094041348e-03</internalNodes>
          <leafValues>
            -6.3068771362304688e-01 5.2649211883544922e-01</leafValues></_>
        <_>
          <internalNodes>
            0 -1 75 5.3327935347624589e-06</internalNodes>
          <leafValues>
            -7.9391992092132568e-01 4.0997365117073059e-01</leafValues></_>
        <_>
          <internalNodes>
            0 -1 1 -3.5209856927394867e-02</internalNodes>
          <leafValues>
            7.2843289375305176e-01 -5.1047968864440918e-01</leafValues></_></weakClassifiers></_>
    <!-- stage 5 -->
    <_>
      <maxWeakCount>5</maxWeakCount>
      <stageThreshold>-9.1873162984848022e-01</stageThreshold>
      <weakClassifiers>
        <_>
          <internalNodes>
            0 -1 44 2.6537315989116905e-06</internalNodes>
          <leafValues>
            -8.3183181285858154e-01 6.6580975055694580e-01</leafValues></_>
        <_>
          <internalNodes>
            0 -1 11 -5.0442717038094997e-03</internalNodes>
          <leafValues>
            7.4544787406921387e-01 -4.8558378219604492e-01</leafValues></_>
        <_>
          <internalNodes>
            0 -1 18 1.6191583126783371e-02</internalNodes>
          <leafValues>
            4.1346201300621033e-01 -9.3878114223480225e-01</leafValues></_>
        <_>
          <internalNodes>
            0 -1 89 1.7716579139232635e-02</internalNodes>
          <leafValues>
            -4.5725992321968079e-01 8.1502181291580200e-01</leafValues></_>
        <_>
          <internalNodes>
            0 -1 51 2.5899655611283379e-06</internalNodes>
          <leafValues>
            -8.0504286289215088e-01 4.4248190522193909e-01</leafValues></_></weakClassifiers></_>
    <!-- stage 6 -->
    <_>
      <maxWeakCount>5</maxWeakCount>
      <stageThreshold>-9.4450414180755615e-01</stageThreshold>
      <weakClassifiers>
        <_>
          <internalNodes>
            0 -1 59 6.2657918533659540e-06</internalNodes>
          <leafValues>
            -8.9312976598739624e-01 5.9289175271987915e-01</leafValues></_>
        <_>
          <internalNodes>
            0 -1 13 -6.1623556539416313e-03</internalNodes>
          <leafValues>
            7.4574220180511475e-01 -4.7704806923866272e-01</leafValues></_>
        <_>
          <internalNodes>
            0 -1 74 3.0811619944870472e-03</internalNodes>
          <leafValues>
            3.9474406838417053e-01 -8.9603435993194580e-01</leafValues></_>
        <_>
          <internalNodes>
            0 -1 30 1.0400555765954778e-05</internalNodes>
          <leafValues>
            -8.4678238630294800e-01 3.1310853362083435e-01</leafValues></_>
        <_>
          <internalNodes>
            0 -1 36 -7.3848553001880646e-03</internalNodes>
          <leafValues>
            7.2245603799819946e-01 -4.7742199897766113e-01</leafValues></_></weakClassifiers></_>
    <!-- stage 7 -->
    <_>
      <maxWeakCount>3</maxWeakCount>
      <stageThreshold>-1.7859683930873871e-01</stageThreshold>
      <weakClassifiers>
        <_>
          <internalNodes>
            0 -1 7 -9.7449079155921936e-02</internalNodes>
          <leafValues>
            -8.9333331584930420e-01 6.3999998569488525e-01</leafValues></_>
        <_>
          <internalNodes>
            0 -1 77 3.5507175653037848e-06</internalNodes>
          <leafValues>
            -8.9020448923110962e-01 3.9368489384651184e-01</leafValues></_>
        <_>
          <internalNodes>
            0 -1 58 2.7050311928178417e-06</internalNodes>
          <leafValues>
            -9.2052513360977173e-01 3.2105162739753723e-01</leafValues></_></weakClassifiers></_>
    <!-- stage 8 -->
    <_>
      <maxWeakCount>4</maxWeakCount>
      <stageThreshold>-5.3461313247680664e-01</stageThreshold>
      <weakClassifiers>
        <_>
          <internalNodes>
            0 -1 29 -5.6128464639186859e-03</internalNodes>
          <leafValues>
            -9.3103450536727905e-01 5.6466877460479736e-01</leafValues></_>
        <_>
          <internalNodes>
            0 -1 56 -5.7232673498219810e-06</internalNodes>
          <leafValues>
            3.8236474990844727e-01 -8.5951459407806396e-01</leafValues></_>
        <_>
          <internalNodes>
            0 -1 53 -4.7561846673488617e-02</internalNodes>
          <leafValues>
            -6.1678183078765869e-01 5.6207132339477539e-01</leafValues></_>
        <_>
          <internalNodes>
            0 -1 61 -2.3243842588271946e-04</internalNodes>
          <leafValues>
            -8.0183863639831543e-01 3.7980017066001892e-01</leafValues></_></weakClassifiers></_>
    <!-- stage 9 -->
    <_>
      <maxWeakCount>6</maxWeakCount>
      <stageThreshold>-1.1853077411651611e+00</stageThreshold>
      <weakClassifiers>
        <_>
          <internalNodes>
            0 -1 35 5.6208990281447768e-04</internalNodes>
          <leafValues>
            6.1231279373168945e-01 -7.9194629192352295e-01</leafValues></_>
        <_>
          <internalNodes>
            0 -1 22 -5.8277592062950134e-02</internalNodes>
          <leafValues>
            8.6499863862991333e-01 -3.3124604821205139e-01</leafValues></_>
        <_>
          <internalNodes>
            0 -1 48 2.0772675052285194e-03</internalNodes>
          <leafValues>
            -4.6489372849464417e-01 5.5725193023681641e-01</leafValues></_>
        <_>
          <internalNodes>
            0 -1 71 -7.7674549174844287e-06</internalNodes>
          <leafValues>
            -8.6852395534515381e-01 2.9900619387626648e-01</leafValues></_>
        <_>
          <internalNodes>
            0 -1 86 -7.6237041503190994e-03</internalNodes>
          <leafValues>
            5.9377211332321167e-01 -4.2292380332946777e-01</leafValues></_>
        <_>
          <internalNodes>
            0 -1 50 -5.4252927657216787e-04</internalNodes>
          <leafValues>
            -9.1499972343444824e-01 2.8996697068214417e-01</leafValues></_></weakClassifiers></_>
    <!-- stage 10 -->
    <_>
      <maxWeakCount>6</maxWeakCount>
      <stageThreshold>-1.2219815254211426e+00</stageThreshold>
      <weakClassifiers>
        <_>
          <internalNodes>
            0 -1 39 -2.7099113140138797e-06</internalNodes>
          <leafValues>
            6.0296541452407837e-01 -8.1118881702423096e-01</leafValues></_>
        <_>
          <internalNodes>
            0 -1 12 -6.8791545927524567e-03</internalNodes>
          <leafValues>
            5.9868699312210083e-01 -5.2039641141891479e-01</leafValues></_>
        <_>
          <internalNodes>
            0 -1 83 4.2865918658208102e-05</internalNodes>
          <leafValues>
            -8.1726807355880737e-01 3.7269204854965210e-01</leafValues></_>
        <_>
          <internalNodes>
            0 -1 10 -4.8649780452251434e-02</internalNodes>
          <leafValues>
            7.3981660604476929e-01 -4.1301357746124268e-01</leafValues></_>
        <_>
          <internalNodes>
            0 -1 43 -2.1352221665438265e-05</internalNodes>
          <leafValues>
            -9.1581982374191284e-01 3.0555236339569092e-01</leafValues></_>
        <_>
          <internalNodes>
            0 -1 73 -3.1527373939752579e-03</internalNodes>
          <leafValues>
            7.7906107902526855e-01 -3.7982118129730225e-01</leafValues></_></weakClassifiers></_>
    <!-- stage 11 -->
    <_>
      <maxWeakCount>4</maxWeakCount>
      <stageThreshold>-7.8985422849655151e-01</stageThreshold>
      <weakClassifiers>
        <_>
          <internalNodes>
            0 -1 52 5.4411939345300198e-04</internalNodes>
          <leafValues>
            5.6996047496795654e-01 -9.4042551517486572e-01</leafValues></_>
        <_>
          <internalNodes>
            0 -1 62 2.3146418243413791e-05</internalNodes>
          <leafValues>
            3.5573491454124451e-01 -8.6974668502807617e-01</leafValues></_>
        <_>
          <internalNodes>
            0 -1 42 1.9589264411479235e-04</internalNodes>
          <leafValues>
            3.2371932268142700e-01 -8.1103515625000000e-01</leafValues></_>
        <_>
          <internalNodes>
            0 -1 64 2.0821129146497697e-04</internalNodes>
          <leafValues>
            3.2096716761589050e-01 -8.5993629693984985e-01</leafValues></_></weakClassifiers></_>
    <!-- stage 12 -->
    <_>
      <maxWeakCount>5</maxWeakCount>
      <stageThreshold>-1.0334460735321045e+00</stageThreshold>
      <weakClassifiers>
        <_>
          <internalNodes>
            0 -1 69 -7.9323190220748074e-06</internalNodes>
          <leafValues>
            -8.3823531866073608e-01 5.9283387660980225e-01</leafValues></_>
        <_>
          <internalNodes>
            0 -1 34 -1.6733030861360021e-05</internalNodes>
          <leafValues>
            -8.6405497789382935e-01 3.4202620387077332e-01</leafValues></_>
        <_>
          <internalNodes>
            0 -1 45 -2.7908133688470116e-06</internalNodes>
          <leafValues>
            3.0897727608680725e-01 -8.4303069114685059e-01</leafValues></_>
        <_>
          <internalNodes>
            0 -1 15 -6.7535261623561382e-03</internalNodes>
          <leafValues>
            6.2865978479385376e-01 -5.0094133615493774e-01</leafValues></_>
        <_>
          <internalNodes>
            0 -1 80 4.7048032283782959e-03</internalNodes>
          <leafValues>
            -6.2433421611785889e-01 4.2058640718460083e-01</leafValues></_></weakClassifiers></_>
    <!-- stage 13 -->
    <_>
      <maxWeakCount>3</maxWeakCount>
      <stageThreshold>-2.4195896089076996e-01</stageThreshold>
      <weakClassifiers>
        <_>
          <internalNodes>
            0 -1 65 -1.1814052413683385e-04</internalNodes>
          <leafValues>
            -8.8888889551162720e-01 5.8012819290161133e-01</leafValues></_>
        <_>
          <internalNodes>
            0 -1 6 -2.3924103006720543e-03</internalNodes>
          <leafValues>
            3.6241656541824341e-01 -8.5273510217666626e-01</leafValues></_>
        <_>
          <internalNodes>
            0 -1 84 2.6995205189450644e-05</internalNodes>
          <leafValues>
            2.8451335430145264e-01 -9.0599972009658813e-01</leafValues></_></weakClassifiers></_>
    <!-- stage 14 -->
    <_>
      <maxWeakCount>5</maxWeakCount>
      <stageThreshold>-3.5635203123092651e-01</stageThreshold>
      <weakClassifiers>
        <_>
          <internalNodes>
            0 -1 60 -4.2014115024358034e-05</internalNodes>
          <leafValues>
            -9.2626726627349854e-01 5.4637569189071655e-01</leafValues></_>
        <_>
          <internalNodes>
            0 -1 14 -4.4592052698135376e-02</internalNodes>
          <leafValues>
            8.4992462396621704e-01 -3.0785953998565674e-01</leafValues></_>
        <_>
          <internalNodes>
            0 -1 66 -2.5899655611283379e-06</internalNodes>
          <leafValues>
            3.8873541355133057e-01 -8.2665771245956421e-01</leafValues></_>
        <_>
          <internalNodes>
            0 -1 41 -1.8991508113685995e-05</internalNodes>
          <leafValues>
            -8.9182174205780029e-01 2.6996010541915894e-01</leafValues></_>
        <_>
          <internalNodes>
            0 -1 23 -1.4013254549354315e-03</internalNodes>
          <leafValues>
            -9.0339255332946777e-01 2.1907925605773926e-01</leafValues></_></weakClassifiers></_>
    <!-- stage 15 -->
    <_>
      <maxWeakCount>4</maxWeakCount>
      <stageThreshold>-3.3578082919120789e-01</stageThreshold>
      <weakClassifiers>
        <_>
          <internalNodes>
            0 -1 17 2.9919827356934547e-03</internalNodes>
          <leafValues>
            5.6925541162490845e-01 -8.4063744544982910e-01</leafValues></_>
        <_>
          <internalNodes>
            0 -1 87 4.1784666478633881e-02</internalNodes>
          <leafValues>
            -3.3087560534477234e-01 8.3486878871917725e-01</leafValues></_>
        <_>
          <internalNodes>
            0 -1 25 -2.4601837503723800e-04</internalNodes>
          <leafValues>
            -8.8222771883010864e-01 3.5960653424263000e-01</leafValues></_>
        <_>
          <internalNodes>
            0 -1 79 -6.0008635045960546e-04</internalNodes>
          <leafValues>
            4.7612571716308594e-01 -5.6690537929534912e-01</leafValues></_></weakClassifiers></_>
    <!-- stage 16 -->
    <_>
      <maxWeakCount>6</maxWeakCount>
      <stageThreshold>-6.6289347410202026e-01</stageThreshold>
      <weakClassifiers>
        <_>
          <internalNodes>
            0 -1 19 -6.2021048506721854e-05</internalNodes>
          <leafValues>
            -8.5950410366058350e-01 5.6279808282852173e-01</leafValues></_>
        <_>
          <internalNodes>
            0 -1 20 -2.5179393123835325e-03</internalNodes>
          <leafValues>
            4.1961115598678589e-01 -6.6054171323776245e-01</leafValues></_>
        <_>
          <internalNodes>
            0 -1 27 4.4064968824386597e-04</internalNodes>
          <leafValues>
            2.9470768570899963e-01 -9.6028643846511841e-01</leafValues></_>
        <_>
          <internalNodes>
            0 -1 72 4.0585491806268692e-02</internalNodes>
          <leafValues>
            -4.0564072132110596e-01 7.2683346271514893e-01</leafValues></_>
        <_>
          <internalNodes>
            0 -1 82 2.6008497115981299e-06</internalNodes>
          <leafValues>
            -7.6910716295242310e-01 3.4814542531967163e-01</leafValues></_>
        <_>
          <internalNodes>
            0 -1 9 7.3380852118134499e-03</internalNodes>
          <leafValues>
            -4.6021288633346558e-01 5.7665890455245972e-01</leafValues></_></weakClassifiers></_>
    <!-- stage 17 -->
    <_>
      <maxWeakCount>5</maxWeakCount>
      <stageThreshold>-6.9719910621643066e-01</stageThreshold>
      <weakClassifiers>
        <_>
          <internalNodes>
            0 -1 67 1.6664096619933844e-03</internalNodes>
          <leafValues>
            5.5223882198333740e-01 -8.9427310228347778e-01</leafValues></_>
        <_>
          <internalNodes>
            0 -1 2 -1.8428802490234375e-02</internalNodes>
          <leafValues>
            8.6563605070114136e-01 -3.1170389056205750e-01</leafValues></_>
        <_>
          <internalNodes>
            0 -1 57 -2.0697119907708839e-05</internalNodes>
          <leafValues>
            3.5986125469207764e-01 -8.2594835758209229e-01</leafValues></_>
        <_>
          <internalNodes>
            0 -1 81 -9.2078029410913587e-05</internalNodes>
          <leafValues>
            -8.9158791303634644e-01 2.5335392355918884e-01</leafValues></_>
        <_>
          <internalNodes>
            0 -1 33 1.4888063073158264e-02</internalNodes>
          <leafValues>
            -3.6513957381248474e-01 8.3034551143646240e-01</leafValues></_></weakClassifiers></_>
    <!-- stage 18 -->
    <_>
      <maxWeakCount>7</maxWeakCount>
      <stageThreshold>-1.1454212665557861e+00</stageThreshold>
      <weakClassifiers>
        <_>
          <internalNodes>
            0 -1 68 4.0145940147340298e-05</internalNodes>
          <leafValues>
            -6.6557377576828003e-01 5.8828449249267578e-01</leafValues></_>
        <_>
          <internalNodes>
            0 -1 46 5.6811273680068552e-05</internalNodes>
          <leafValues>
            3.4704998135566711e-01 -7.7120769023895264e-01</leafValues></_>
        <_>
          <internalNodes>
            0 -1 85 1.3783242138742935e-05</internalNodes>
          <leafValues>
            2.9048502445220947e-01 -7.5369203090667725e-01</leafValues></_>
        <_>
          <internalNodes>
            0 -1 3 -8.7294038385152817e-03</internalNodes>
          <leafValues>
            6.7532217502593994e-01 -3.7543541193008423e-01</leafValues></_>
        <_>
          <internalNodes>
            0 -1 63 -2.7087398848379962e-06</internalNodes>
          <leafValues>
            3.0690139532089233e-01 -7.7769106626510620e-01</leafValues></_>
        <_>
          <internalNodes>
            0 -1 49 2.6008497115981299e-06</internalNodes>
          <leafValues>
            -8.6808919906616211e-01 2.3273575305938721e-01</leafValues></_>
        <_>
          <internalNodes>
            0 -1 88 -4.7572311013936996e-03</internalNodes>
          <leafValues>
            6.2449860572814941e-01 -3.7300780415534973e-01</leafValues></_></weakClassifiers></_>
    <!-- stage 19 -->
    <_>
      <maxWeakCount>5</maxWeakCount>
      <stageThreshold>-1.8304158747196198e-01</stageThreshold>
      <weakClassifiers>
        <_>
          <internalNodes>
            0 -1 28 -1.7278101295232773e-03</internalNodes>
          <leafValues>
            -9.4594591856002808e-01 5.1330798864364624e-01</leafValues></_>
        <_>
          <internalNodes>
            0 -1 55 -5.4100623856356833e-06</internalNodes>
          <leafValues>
            3.1766089797019958e-01 -8.6292833089828491e-01</leafValues></_>
        <_>
          <internalNodes>
            0 -1 5 -4.6794857829809189e-02</internalNodes>
          <leafValues>
            8.0363017320632935e-01 -3.8972410559654236e-01</leafValues></_>
        <_>
          <internalNodes>
            0 -1 26 -6.5466549131087959e-05</internalNodes>
          <leafValues>
            -8.4488219022750854e-01 3.0637416243553162e-01</leafValues></_>
        <_>
          <internalNodes>
            0 -1 21 8.1760104512795806e-04</internalNodes>
          <leafValues>
            2.4992868304252625e-01 -7.9952901601791382e-01</leafValues></_></weakClassifiers></_></stages>
  <features>
    <_>
      <rects>
        <_>
          0 0 50 18 -1.</_>
        <_>
          0 9 50 9 2.</_></rects>
      <tilted>0</tilted></_>
    <_>
      <rects>
        <_>
          0 1 12 36 -1.</_>
        <_>
          6 1 6 36 2.</_></rects>
      <tilted>0</tilted></_>
    <_>
      <rects>
        <_>
          0 12 6 24 -1.</_>
        <_>
          3 12 3 24 2.</_></rects>
      <tilted>0</tilted></_>
    <_>
      <rects>
        <_>
          0 23 6 13 -1.</_>
        <_>
          3 23 3 13 2.</_></rects>
      <tilted>0</tilted></_>
    <_>
      <rects>
        <_>
          0 39 32 8 -1.</_>
        <_>
          0 39 16 4 2.</_>
        <_>
          16 43 16 4 2.</_></rects>
      <tilted>0</tilted></_>
    <_>
      <rects>
        <_>
          1 4 16 14 -1.</_>
        <_>
          9 4 8 14 2.</_></rects>
      <tilted>0</tilted></_>
    <_>
      <rects>
        <_>
          1 11 33 8 -1.</_>
        <_>
          1 15 33 4 2.</_></rects>
      <tilted>0</tilted></_>
    <_>
      <rects>
        <_>
          1 18 18 10 -1.</_>
        <_>
          7 18 6 10 2.</_></rects>
      <tilted>0</tilted></_>
    <_>
      <rects>
        <_>
          3 40 26 8 -1.</_>
        <_>
          3 40 13 4 2.</_>
        <_>
          16 44 13 4 2.</_></rects>
      <tilted>0</tilted></_>
    <_>
      <rects>
        <_>
          4 0 6 32 -1.</_>
        <_>
          4 0 3 16 2.</_>
        <_>
          7 16 3 16 2.</_></rects>
      <tilted>0</tilted></_>
    <_>
      <rects>
        <_>
          4 0 38 10 -1.</_>
        <_>
          4 5 38 5 2.</_></rects>
      <tilted>0</tilted></_>
    <_>
      <rects>
        <_>
          4 21 6 26 -1.</_>
        <_>
          4 21 3 13 2.</_>
        <_>
          7 34 3 13 2.</_></rects>
      <tilted>0</tilted></_>
    <_>
      <rects>
        <_>
          4 23 8 24 -1.</_>
        <_>
          4 23 4 12 2.</_>
        <_>
          8 35 4 12 2.</_></rects>
      <tilted>0</tilted></_>
    <_>
      <rects>
        <_>
          4 37 16 8 -1.</_>
        <_>
          4 37 8 4 2.</_>
        <_>
          12 41 8 4 2.</_></rects>
      <tilted>0</tilted></_>
    <_>
      <rects>
        <_>
          6 0 33 8 -1.</_>
        <_>
          6 4 33 4 2.</_></rects>
      <tilted>0</tilted></_>
    <_>
      <rects>
        <_>
          6 31 8 16 -1.</_>
        <_>
          6 31 4 8 2.</_>
        <_>
          10 39 4 8 2.</_></rects>
      <tilted>0</tilted></_>
    <_>
      <rects>
        <_>
          7 12 1 3 -1.</_>
        <_>
          7 13 1 1 2.</_></rects>
      <tilted>0</tilted></_>
    <_>
      <rects>
        <_>
          7 16 20 19 -1.</_>
        <_>
          17 16 10 19 2.</_></rects>
      <tilted>0</tilted></_>
    <_>
      <rects>
        <_>
          7 17 26 21 -1.</_>
        <_>
          20 17 13 21 2.</_></rects>
      <tilted>0</tilted></_>
    <_>
      <rects>
        <_>
          7 22 18 2 -1.</_>
        <_>
          7 22 9 1 2.</_>
        <_>
          16 23 9 1 2.</_></rects>
      <tilted>0</tilted></_>
    <_>
      <rects>
        <_>
          7 41 20 6 -1.</_>
        <_>
          7 41 10 3 2.</_>
        <_>
          17 44 10 3 2.</_></rects>
      <tilted>0</tilted></_>
    <_>
      <rects>
        <_>
          8 28 34 4 -1.</_>
        <_>
          8 30 34 2 2.</_></rects>
      <tilted>0</tilted></_>
    <_>
      <rects>
        <_>
          9 0 34 10 -1.</_>
        <_>
          9 5 34 5 2.</_></rects>
      <tilted>0</tilted></_>
    <_>
      <rects>
        <_>
          9 25 38 10 -1.</_>
        <_>
          9 25 19 5 2.</_>
        <_>
          28 30 19 5 2.</_></rects>
      <tilted>0</tilted></_>
    <_>
      <rects>
        <_>
          10 13 8 36 -1.</_>
        <_>
          14 13 4 36 2.</_></rects>
      <tilted>0</tilted></_>
    <_>
      <rects>
        <_>
          10 25 7 6 -1.</_>
        <_>
          10 28 7 3 2.</_></rects>
      <tilted>0</tilted></_>
    <_>
      <rects>
        <_>
          10 29 8 4 -1.</_>
        <_>
          10 31 8 2 2.</_></rects>
      <tilted>0</tilted></_>
    <_>
      <rects>
        <_>
          10 30 26 2 -1.</_>
        <_>
          10 30 13 1 2.</_>
        <_>
          23 31 13 1 2.</_></rects>
      <tilted>0</tilted></_>
    <_>
      <rects>
        <_>
          10 31 32 2 -1.</_>
        <_>
          26 31 16 2 2.</_></rects>
      <tilted>0</tilted></_>
    <_>
      <rects>
        <_>
          13 24 30 11 -1.</_>
        <_>
          28 24 15 11 2.</_></rects>
      <tilted>0</tilted></_>
    <_>
      <rects>
        <_>
          13 28 3 4 -1.</_>
        <_>
          13 30 3 2 2.</_></rects>
      <tilted>0</tilted></_>
    <_>
      <rects>
        <_>
          15 3 10 30 -1.</_>
        <_>
          15 3 5 15 2.</_>
        <_>
          20 18 5 15 2.</_></rects>
      <tilted>0</tilted></_>
    <_>
      <rects>
        <_>
          15 15 6 26 -1.</_>
        <_>
          15 28 6 13 2.</_></rects>
      <tilted>0</tilted></_>
    <_>
      <rects>
        <_>
          17 4 18 8 -1.</_>
        <_>
          17 8 18 4 2.</_></rects>
      <tilted>0</tilted></_>
    <_>
      <rects>
        <_>
          17 20 2 4 -1.</_>
        <_>
          17 20 1 2 2.</_>
        <_>
          18 22 1 2 2.</_></rects>
      <tilted>0</tilted></_>
    <_>
      <rects>
        <_>
          17 26 24 1 -1.</_>
        <_>
          29 26 12 1 2.</_></rects>
      <tilted>0</tilted></_>
    <_>
      <rects>
        <_>
          18 5 28 6 -1.</_>
        <_>
          18 5 14 3 2.</_>
        <_>
          32 8 14 3 2.</_></rects>
      <tilted>0</tilted></_>
    <_>
      <rects>
        <_>
          18 13 4 16 -1.</_>
        <_>
          18 13 2 8 2.</_>
        <_>
          20 21 2 8 2.</_></rects>
      <tilted>0</tilted></_>
    <_>
      <rects>
        <_>
          18 16 32 4 -1.</_>
        <_>
          34 16 16 4 2.</_></rects>
      <tilted>0</tilted></_>
    <_>
      <rects>
        <_>
          18 27 2 8 -1.</_>
        <_>
          18 27 1 4 2.</_>
        <_>
          19 31 1 4 2.</_></rects>
      <tilted>0</tilted></_>
    <_>
      <rects>
        <_>
          18 27 8 6 -1.</_>
        <_>
          18 30 8 3 2.</_></rects>
      <tilted>0</tilted></_>
    <_>
      <rects>
        <_>
          19 9 2 25 -1.</_>
        <_>
          20 9 1 25 2.</_></rects>
      <tilted>0</tilted></_>
    <_>
      <rects>
        <_>
          19 34 4 5 -1.</_>
        <_>
          21 34 2 5 2.</_></rects>
      <tilted>0</tilted></_>
    <_>
      <rects>
        <_>
          20 20 2 21 -1.</_>
        <_>
          21 20 1 21 2.</_></rects>
      <tilted>0</tilted></_>
    <_>
      <rects>
        <_>
          20 28 2 2 -1.</_>
        <_>
          21 28 1 2 2.</_></rects>
      <tilted>0</tilted></_>
    <_>
      <rects>
        <_>
          20 30 4 6 -1.</_>
        <_>
          20 30 2 3 2.</_>
        <_>
          22 33 2 3 2.</_></rects>
      <tilted>0</tilted></_>
    <_>
      <rects>
        <_>
          20 35 2 5 -1.</_>
        <_>
          21 35 1 5 2.</_></rects>
      <tilted>0</tilted></_>
    <_>
      <rects>
        <_>
          20 41 24 6 -1.</_>
        <_>
          20 41 12 3 2.</_>
        <_>
          32 44 12 3 2.</_></rects>
      <tilted>0</tilted></_>
    <_>
      <rects>
        <_>
          20 41 26 4 -1.</_>
        <_>
          20 41 13 2 2.</_>
        <_>
          33 43 13 2 2.</_></rects>
      <tilted>0</tilted></_>
    <_>
      <rects>
        <_>
          21 22 1 2 -1.</_>
        <_>
          21 23 1 1 2.</_></rects>
      <tilted>0</tilted></_>
    <_>
      <rects>
        <_>
          21 23 6 6 -1.</_>
        <_>
          21 23 3 3 2.</_>
        <_>
          24 26 3 3 2.</_></rects>
      <tilted>0</tilted></_>
    <_>
      <rects>
        <_>
          22 20 1 2 -1.</_>
        <_>
          22 21 1 1 2.</_></rects>
      <tilted>0</tilted></_>
    <_>
      <rects>
        <_>
          22 23 4 6 -1.</_>
        <_>
          22 23 2 3 2.</_>
        <_>
          24 26 2 3 2.</_></rects>
      <tilted>0</tilted></_>
    <_>
      <rects>
        <_>
          22 30 8 18 -1.</_>
        <_>
          22 36 8 6 2.</_></rects>
      <tilted>0</tilted></_>
    <_>
      <rects>
        <_>
          23 25 10 14 -1.</_>
        <_>
          23 25 5 7 2.</_>
        <_>
          28 32 5 7 2.</_></rects>
      <tilted>0</tilted></_>
    <_>
      <rects>
        <_>
          24 18 8 22 -1.</_>
        <_>
          28 18 4 22 2.</_></rects>
      <tilted>0</tilted></_>
    <_>
      <rects>
        <_>
          24 19 8 25 -1.</_>
        <_>
          28 19 4 25 2.</_></rects>
      <tilted>0</tilted></_>
    <_>
      <rects>
        <_>
          25 16 6 6 -1.</_>
        <_>
          25 16 3 3 2.</_>
        <_>
          28 19 3 3 2.</_></rects>
      <tilted>0</tilted></_>
    <_>
      <rects>
        <_>
          25 19 1 4 -1.</_>
        <_>
          25 21 1 2 2.</_></rects>
      <tilted>0</tilted></_>
    <_>
      <rects>
        <_>
          25 21 1 4 -1.</_>
        <_>
          25 23 1 2 2.</_></rects>
      <tilted>0</tilted></_>
    <_>
      <rects>
        <_>
          25 22 2 2 -1.</_>
        <_>
          25 22 1 1 2.</_>
        <_>
          26 23 1 1 2.</_></rects>
      <tilted>0</tilted></_>
    <_>
      <rects>
        <_>
          25 31 12 8 -1.</_>
        <_>
          25 35 12 4 2.</_></rects>
      <tilted>0</tilted></_>
    <_>
      <rects>
        <_>
          26 14 2 8 -1.</_>
        <_>
          26 14 1 4 2.</_>
        <_>
          27 18 1 4 2.</_></rects>
      <tilted>0</tilted></_>
    <_>
      <rects>
        <_>
          26 15 10 2 -1.</_>
        <_>
          26 16 10 1 2.</_></rects>
      <tilted>0</tilted></_>
    <_>
      <rects>
        <_>
          26 29 2 12 -1.</_>
        <_>
          27 29 1 12 2.</_></rects>
      <tilted>0</tilted></_>
    <_>
      <rects>
        <_>
          26 34 2 8 -1.</_>
        <_>
          27 34 1 8 2.</_></rects>
      <tilted>0</tilted></_>
    <_>
      <rects>
        <_>
          28 25 2 1 -1.</_>
        <_>
          29 25 1 1 2.</_></rects>
      <tilted>0</tilted></_>
    <_>
      <rects>
        <_>
          28 26 15 4 -1.</_>
        <_>
          28 28 15 2 2.</_></rects>
      <tilted>0</tilted></_>
    <_>
      <rects>
        <_>
          29 12 8 6 -1.</_>
        <_>
          29 12 4 3 2.</_>
        <_>
          33 15 4 3 2.</_></rects>
      <tilted>0</tilted></_>
    <_>
      <rects>
        <_>
          29 13 4 6 -1.</_>
        <_>
          31 13 2 6 2.</_></rects>
      <tilted>0</tilted></_>
    <_>
      <rects>
        <_>
          29 14 5 6 -1.</_>
        <_>
          29 17 5 3 2.</_></rects>
      <tilted>0</tilted></_>
    <_>
      <rects>
        <_>
          29 33 2 5 -1.</_>
        <_>
          30 33 1 5 2.</_></rects>
      <tilted>0</tilted></_>
    <_>
      <rects>
        <_>
          30 6 20 9 -1.</_>
        <_>
          40 6 10 9 2.</_></rects>
      <tilted>0</tilted></_>
    <_>
      <rects>
        <_>
          30 11 14 2 -1.</_>
        <_>
          37 11 7 2 2.</_></rects>
      <tilted>0</tilted></_>
    <_>
      <rects>
        <_>
          30 12 7 18 -1.</_>
        <_>
          30 21 7 9 2.</_></rects>
      <tilted>0</tilted></_>
    <_>
      <rects>
        <_>
          30 33 2 4 -1.</_>
        <_>
          31 33 1 4 2.</_></rects>
      <tilted>0</tilted></_>
    <_>
      <rects>
        <_>
          31 1 8 35 -1.</_>
        <_>
          35 1 4 35 2.</_></rects>
      <tilted>0</tilted></_>
    <_>
      <rects>
        <_>
          31 30 4 7 -1.</_>
        <_>
          33 30 2 7 2.</_></rects>
      <tilted>0</tilted></_>
    <_>
      <rects>
        <_>
          32 1 12 16 -1.</_>
        <_>
          32 9 12 8 2.</_></rects>
      <tilted>0</tilted></_>
    <_>
      <rects>
        <_>
          32 39 8 2 -1.</_>
        <_>
          36 39 4 2 2.</_></rects>
      <tilted>0</tilted></_>
    <_>
      <rects>
        <_>
          33 4 6 26 -1.</_>
        <_>
          36 4 3 26 2.</_></rects>
      <tilted>0</tilted></_>
    <_>
      <rects>
        <_>
          33 26 5 4 -1.</_>
        <_>
          33 28 5 2 2.</_></rects>
      <tilted>0</tilted></_>
    <_>
      <rects>
        <_>
          33 32 2 1 -1.</_>
        <_>
          34 32 1 1 2.</_></rects>
      <tilted>0</tilted></_>
    <_>
      <rects>
        <_>
          34 15 6 10 -1.</_>
        <_>
          34 15 3 5 2.</_>
        <_>
          37 20 3 5 2.</_></rects>
      <tilted>0</tilted></_>
    <_>
      <rects>
        <_>
          34 30 6 2 -1.</_>
        <_>
          34 30 3 1 2.</_>
        <_>
          37 31 3 1 2.</_></rects>
      <tilted>0</tilted></_>
    <_>
      <rects>
        <_>
          34 32 4 4 -1.</_>
        <_>
          34 32 2 2 2.</_>
        <_>
          36 34 2 2 2.</_></rects>
      <tilted>0</tilted></_>
    <_>
      <rects>
        <_>
          38 19 8 19 -1.</_>
        <_>
          42 19 4 19 2.</_></rects>
      <tilted>0</tilted></_>
    <_>
      <rects>
        <_>
          40 6 10 37 -1.</_>
        <_>
          45 6 5 37 2.</_></rects>
      <tilted>0</tilted></_>
    <_>
      <rects>
        <_>
          42 3 4 28 -1.</_>
        <_>
          42 3 2 14 2.</_>
        <_>
          44 17 2 14 2.</_></rects>
      <tilted>0</tilted></_>
    <_>
      <rects>
        <_>
          42 9 8 27 -1.</_>
        <_>
          46 9 4 27 2.</_></rects>
      <tilted>0</tilted></_></features></cascade>
</opencv_storage>
