<?xml version="1.0"?>
<opencv_storage>
<stage19>
  <maxWeakCount>5</maxWeakCount>
  <stageThreshold>-1.8304158747196198e-01</stageThreshold>
  <weakClassifiers>
    <_>
      <internalNodes>
        0 -1 1169056 -1.7278101295232773e-03</internalNodes>
      <leafValues>
        -9.4594591856002808e-01 5.1330798864364624e-01</leafValues></_>
    <_>
      <internalNodes>
        0 -1 2240190 -5.4100623856356833e-06</internalNodes>
      <leafValues>
        3.1766089797019958e-01 -8.6292833089828491e-01</leafValues></_>
    <_>
      <internalNodes>
        0 -1 138541 -4.6794857829809189e-02</internalNodes>
      <leafValues>
        8.0363017320632935e-01 -3.8972410559654236e-01</leafValues></_>
    <_>
      <internalNodes>
        0 -1 1165576 -6.5466549131087959e-05</internalNodes>
      <leafValues>
        -8.4488219022750854e-01 3.0637416243553162e-01</leafValues></_>
    <_>
      <internalNodes>
        0 -1 971172 8.1760104512795806e-04</internalNodes>
      <leafValues>
        2.4992868304252625e-01 -7.9952901601791382e-01</leafValues></_></weakClassifiers></stage19>
</opencv_storage>
