<?xml version="1.0"?>
<opencv_storage>
<stage4>
  <maxWeakCount>5</maxWeakCount>
  <stageThreshold>-9.7239750623703003e-01</stageThreshold>
  <weakClassifiers>
    <_>
      <internalNodes>
        0 -1 1817145 7.9094490502029657e-05</internalNodes>
      <leafValues>
        -9.2307692766189575e-01 6.2932455539703369e-01</leafValues></_>
    <_>
      <internalNodes>
        0 -1 1843118 2.4104004842229187e-04</internalNodes>
      <leafValues>
        4.1581997275352478e-01 -8.7052828073501587e-01</leafValues></_>
    <_>
      <internalNodes>
        0 -1 2002231 3.1637228094041348e-03</internalNodes>
      <leafValues>
        -6.3068771362304688e-01 5.2649211883544922e-01</leafValues></_>
    <_>
      <internalNodes>
        0 -1 2579337 5.3327935347624589e-06</internalNodes>
      <leafValues>
        -7.9391992092132568e-01 4.0997365117073059e-01</leafValues></_>
    <_>
      <internalNodes>
        0 -1 5669 -3.5209856927394867e-02</internalNodes>
      <leafValues>
        7.2843289375305176e-01 -5.1047968864440918e-01</leafValues></_></weakClassifiers></stage4>
</opencv_storage>
