<?xml version="1.0"?>
<opencv_storage>
<stage9>
  <maxWeakCount>6</maxWeakCount>
  <stageThreshold>-1.1853077411651611e+00</stageThreshold>
  <weakClassifiers>
    <_>
      <internalNodes>
        0 -1 1765264 5.6208990281447768e-04</internalNodes>
      <leafValues>
        6.1231279373168945e-01 -7.9194629192352295e-01</leafValues></_>
    <_>
      <internalNodes>
        0 -1 992798 -5.8277592062950134e-02</internalNodes>
      <leafValues>
        8.6499863862991333e-01 -3.3124604821205139e-01</leafValues></_>
    <_>
      <internalNodes>
        0 -1 2002247 2.0772675052285194e-03</internalNodes>
      <leafValues>
        -4.6489372849464417e-01 5.5725193023681641e-01</leafValues></_>
    <_>
      <internalNodes>
        0 -1 2531762 -7.7674549174844287e-06</internalNodes>
      <leafValues>
        -8.6852395534515381e-01 2.9900619387626648e-01</leafValues></_>
    <_>
      <internalNodes>
        0 -1 2865889 -7.6237041503190994e-03</internalNodes>
      <leafValues>
        5.9377211332321167e-01 -4.2292380332946777e-01</leafValues></_>
    <_>
      <internalNodes>
        0 -1 2052606 -5.4252927657216787e-04</internalNodes>
      <leafValues>
        -9.1499972343444824e-01 2.8996697068214417e-01</leafValues></_></weakClassifiers></stage9>
</opencv_storage>
